digraph Tree {
node [shape=box, style="filled, rounded", color="black", fontname="helvetica"] ;
edge [fontname="helvetica"] ;
0 [label="HOUSE <= 601744.5\ngini = 0.5\nsamples = 14000\nvalue = [6917, 7083]\nclass = LEAVE", fillcolor="#fafdfe"] ;
1 [label="OVERAGE <= 98.5\ngini = 0.49\nsamples = 9279\nvalue = [5423, 3856]\nclass = STAY", fillcolor="#f7dbc6"] ;
0 -> 1 [labeldistance=2.5, labelangle=45, headlabel="True"] ;
2 [label="LEFTOVER <= 24.5\ngini = 0.5\nsamples = 6164\nvalue = [2944, 3220]\nclass = LEAVE", fillcolor="#eef7fd"] ;
1 -> 2 ;
3 [label="LEFTOVER <= 2.5\ngini = 0.49\nsamples = 4129\nvalue = [1711, 2418]\nclass = LEAVE", fillcolor="#c5e2f7"] ;
2 -> 3 ;
4 [label="INCOME <= 60953.5\ngini = 0.5\nsamples = 2077\nvalue = [1085, 992]\nclass = STAY", fillcolor="#fdf4ee"] ;
3 -> 4 ;
5 [label="HOUSE <= 156489.0\ngini = 0.49\nsamples = 852\nvalue = [482, 370]\nclass = STAY", fillcolor="#f9e2d1"] ;
4 -> 5 ;
6 [label="INCOME <= 35452.5\ngini = 0.35\nsamples = 22\nvalue = [5, 17]\nclass = LEAVE", fillcolor="#73baed"] ;
5 -> 6 ;
7 [label="gini = 0.0\nsamples = 13\nvalue = [0, 13]\nclass = LEAVE", fillcolor="#399de5"] ;
6 -> 7 ;
8 [label="HANDSET_PRICE <= 218.0\ngini = 0.49\nsamples = 9\nvalue = [5, 4]\nclass = STAY", fillcolor="#fae6d7"] ;
6 -> 8 ;
9 [label="OVERAGE <= 24.5\ngini = 0.38\nsamples = 4\nvalue = [1, 3]\nclass = LEAVE", fillcolor="#7bbeee"] ;
8 -> 9 ;
10 [label="gini = 0.0\nsamples = 1\nvalue = [1, 0]\nclass = STAY", fillcolor="#e58139"] ;
9 -> 10 ;
11 [label="gini = 0.0\nsamples = 3\nvalue = [0, 3]\nclass = LEAVE", fillcolor="#399de5"] ;
9 -> 11 ;
12 [label="REPORTED_USAGE_LEVEL_very_high <= 0.5\ngini = 0.32\nsamples = 5\nvalue = [4, 1]\nclass = STAY", fillcolor="#eca06a"] ;
8 -> 12 ;
13 [label="gini = 0.0\nsamples = 3\nvalue = [3, 0]\nclass = STAY", fillcolor="#e58139"] ;
12 -> 13 ;
14 [label="HANDSET_PRICE <= 284.5\ngini = 0.5\nsamples = 2\nvalue = [1, 1]\nclass = STAY", fillcolor="#ffffff"] ;
12 -> 14 ;
15 [label="gini = 0.0\nsamples = 1\nvalue = [1, 0]\nclass = STAY", fillcolor="#e58139"] ;
14 -> 15 ;
16 [label="gini = 0.0\nsamples = 1\nvalue = [0, 1]\nclass = LEAVE", fillcolor="#399de5"] ;
14 -> 16 ;
17 [label="COLLEGE <= 0.5\ngini = 0.49\nsamples = 830\nvalue = [477, 353]\nclass = STAY", fillcolor="#f8decc"] ;
5 -> 17 ;
18 [label="HOUSE <= 183256.5\ngini = 0.5\nsamples = 422\nvalue = [224, 198]\nclass = STAY", fillcolor="#fcf0e8"] ;
17 -> 18 ;
19 [label="HANDSET_PRICE <= 235.0\ngini = 0.35\nsamples = 44\nvalue = [34, 10]\nclass = STAY", fillcolor="#eda673"] ;
18 -> 19 ;
20 [label="OVER_15MINS_CALLS_PER_MONTH <= 3.5\ngini = 0.47\nsamples = 27\nvalue = [17, 10]\nclass = STAY", fillcolor="#f4cbad"] ;
19 -> 20 ;
21 [label="HOUSE <= 159444.5\ngini = 0.29\nsamples = 17\nvalue = [14, 3]\nclass = STAY", fillcolor="#eb9c63"] ;
20 -> 21 ;
22 [label="CONSIDERING_CHANGE_OF_PLAN_no <= 0.5\ngini = 0.48\nsamples = 5\nvalue = [2, 3]\nclass = LEAVE", fillcolor="#bddef6"] ;
21 -> 22 ;
23 [label="gini = 0.0\nsamples = 3\nvalue = [0, 3]\nclass = LEAVE", fillcolor="#399de5"] ;
22 -> 23 ;
24 [label="gini = 0.0\nsamples = 2\nvalue = [2, 0]\nclass = STAY", fillcolor="#e58139"] ;
22 -> 24 ;
25 [label="gini = 0.0\nsamples = 12\nvalue = [12, 0]\nclass = STAY", fillcolor="#e58139"] ;
21 -> 25 ;
26 [label="INCOME <= 38991.0\ngini = 0.42\nsamples = 10\nvalue = [3, 7]\nclass = LEAVE", fillcolor="#8ec7f0"] ;
20 -> 26 ;
27 [label="gini = 0.0\nsamples = 6\nvalue = [0, 6]\nclass = LEAVE", fillcolor="#399de5"] ;
26 -> 27 ;
28 [label="REPORTED_SATISFACTION_unsat <= 0.5\ngini = 0.38\nsamples = 4\nvalue = [3, 1]\nclass = STAY", fillcolor="#eeab7b"] ;
26 -> 28 ;
29 [label="gini = 0.0\nsamples = 3\nvalue = [3, 0]\nclass = STAY", fillcolor="#e58139"] ;
28 -> 29 ;
30 [label="gini = 0.0\nsamples = 1\nvalue = [0, 1]\nclass = LEAVE", fillcolor="#399de5"] ;
28 -> 30 ;
31 [label="gini = 0.0\nsamples = 17\nvalue = [17, 0]\nclass = STAY", fillcolor="#e58139"] ;
19 -> 31 ;
32 [label="OVER_15MINS_CALLS_PER_MONTH <= 4.5\ngini = 0.5\nsamples = 378\nvalue = [190, 188]\nclass = STAY", fillcolor="#fffefd"] ;
18 -> 32 ;
33 [label="HOUSE <= 234153.0\ngini = 0.5\nsamples = 284\nvalue = [129, 155]\nclass = LEAVE", fillcolor="#deeffb"] ;
32 -> 33 ;
34 [label="INCOME <= 41597.5\ngini = 0.42\nsamples = 54\nvalue = [16, 38]\nclass = LEAVE", fillcolor="#8cc6f0"] ;
33 -> 34 ;
35 [label="AVERAGE_CALL_DURATION <= 10.5\ngini = 0.5\nsamples = 26\nvalue = [12, 14]\nclass = LEAVE", fillcolor="#e3f1fb"] ;
34 -> 35 ;
36 [label="INCOME <= 21396.5\ngini = 0.3\nsamples = 11\nvalue = [2, 9]\nclass = LEAVE", fillcolor="#65b3eb"] ;
35 -> 36 ;
37 [label="gini = 0.0\nsamples = 1\nvalue = [1, 0]\nclass = STAY", fillcolor="#e58139"] ;
36 -> 37 ;
38 [label="INCOME <= 41049.0\ngini = 0.18\nsamples = 10\nvalue = [1, 9]\nclass = LEAVE", fillcolor="#4fa8e8"] ;
36 -> 38 ;
39 [label="gini = 0.0\nsamples = 9\nvalue = [0, 9]\nclass = LEAVE", fillcolor="#399de5"] ;
38 -> 39 ;
40 [label="gini = 0.0\nsamples = 1\nvalue = [1, 0]\nclass = STAY", fillcolor="#e58139"] ;
38 -> 40 ;
41 [label="OVERAGE <= 73.5\ngini = 0.44\nsamples = 15\nvalue = [10, 5]\nclass = STAY", fillcolor="#f2c09c"] ;
35 -> 41 ;
42 [label="HOUSE <= 229542.0\ngini = 0.36\nsamples = 13\nvalue = [10, 3]\nclass = STAY", fillcolor="#eda774"] ;
41 -> 42 ;
43 [label="REPORTED_USAGE_LEVEL_little <= 0.5\ngini = 0.28\nsamples = 12\nvalue = [10, 2]\nclass = STAY", fillcolor="#ea9a61"] ;
42 -> 43 ;
44 [label="gini = 0.0\nsamples = 6\nvalue = [6, 0]\nclass = STAY", fillcolor="#e58139"] ;
43 -> 44 ;
45 [label="REPORTED_SATISFACTION_very_unsat <= 0.5\ngini = 0.44\nsamples = 6\nvalue = [4, 2]\nclass = STAY", fillcolor="#f2c09c"] ;
43 -> 45 ;
46 [label="HOUSE <= 209418.5\ngini = 0.44\nsamples = 3\nvalue = [1, 2]\nclass = LEAVE", fillcolor="#9ccef2"] ;
45 -> 46 ;
47 [label="gini = 0.0\nsamples = 1\nvalue = [1, 0]\nclass = STAY", fillcolor="#e58139"] ;
46 -> 47 ;
48 [label="gini = 0.0\nsamples = 2\nvalue = [0, 2]\nclass = LEAVE", fillcolor="#399de5"] ;
46 -> 48 ;
49 [label="gini = 0.0\nsamples = 3\nvalue = [3, 0]\nclass = STAY", fillcolor="#e58139"] ;
45 -> 49 ;
50 [label="gini = 0.0\nsamples = 1\nvalue = [0, 1]\nclass = LEAVE", fillcolor="#399de5"] ;
42 -> 50 ;
51 [label="gini = 0.0\nsamples = 2\nvalue = [0, 2]\nclass = LEAVE", fillcolor="#399de5"] ;
41 -> 51 ;
52 [label="HOUSE <= 197864.5\ngini = 0.24\nsamples = 28\nvalue = [4, 24]\nclass = LEAVE", fillcolor="#5aade9"] ;
34 -> 52 ;
53 [label="INCOME <= 52553.5\ngini = 0.5\nsamples = 6\nvalue = [3, 3]\nclass = STAY", fillcolor="#ffffff"] ;
52 -> 53 ;
54 [label="OVERAGE <= 53.0\ngini = 0.38\nsamples = 4\nvalue = [3, 1]\nclass = STAY", fillcolor="#eeab7b"] ;
53 -> 54 ;
55 [label="gini = 0.0\nsamples = 3\nvalue = [3, 0]\nclass = STAY", fillcolor="#e58139"] ;
54 -> 55 ;
56 [label="gini = 0.0\nsamples = 1\nvalue = [0, 1]\nclass = LEAVE", fillcolor="#399de5"] ;
54 -> 56 ;
57 [label="gini = 0.0\nsamples = 2\nvalue = [0, 2]\nclass = LEAVE", fillcolor="#399de5"] ;
53 -> 57 ;
58 [label="INCOME <= 57314.0\ngini = 0.09\nsamples = 22\nvalue = [1, 21]\nclass = LEAVE", fillcolor="#42a2e6"] ;
52 -> 58 ;
59 [label="gini = 0.0\nsamples = 20\nvalue = [0, 20]\nclass = LEAVE", fillcolor="#399de5"] ;
58 -> 59 ;
60 [label="OVERAGE <= 51.5\ngini = 0.5\nsamples = 2\nvalue = [1, 1]\nclass = STAY", fillcolor="#ffffff"] ;
58 -> 60 ;
61 [label="gini = 0.0\nsamples = 1\nvalue = [1, 0]\nclass = STAY", fillcolor="#e58139"] ;
60 -> 61 ;
62 [label="gini = 0.0\nsamples = 1\nvalue = [0, 1]\nclass = LEAVE", fillcolor="#399de5"] ;
60 -> 62 ;
63 [label="HOUSE <= 260264.0\ngini = 0.5\nsamples = 230\nvalue = [113, 117]\nclass = LEAVE", fillcolor="#f8fcfe"] ;
33 -> 63 ;
64 [label="INCOME <= 24567.5\ngini = 0.43\nsamples = 19\nvalue = [13, 6]\nclass = STAY", fillcolor="#f1bb94"] ;
63 -> 64 ;
65 [label="gini = 0.0\nsamples = 3\nvalue = [0, 3]\nclass = LEAVE", fillcolor="#399de5"] ;
64 -> 65 ;
66 [label="OVERAGE <= 84.5\ngini = 0.3\nsamples = 16\nvalue = [13, 3]\nclass = STAY", fillcolor="#eb9e67"] ;
64 -> 66 ;
67 [label="CONSIDERING_CHANGE_OF_PLAN_considering <= 0.5\ngini = 0.23\nsamples = 15\nvalue = [13, 2]\nclass = STAY", fillcolor="#e99457"] ;
66 -> 67 ;
68 [label="gini = 0.0\nsamples = 9\nvalue = [9, 0]\nclass = STAY", fillcolor="#e58139"] ;
67 -> 68 ;
69 [label="INCOME <= 39884.5\ngini = 0.44\nsamples = 6\nvalue = [4, 2]\nclass = STAY", fillcolor="#f2c09c"] ;
67 -> 69 ;
70 [label="gini = 0.0\nsamples = 4\nvalue = [4, 0]\nclass = STAY", fillcolor="#e58139"] ;
69 -> 70 ;
71 [label="gini = 0.0\nsamples = 2\nvalue = [0, 2]\nclass = LEAVE", fillcolor="#399de5"] ;
69 -> 71 ;
72 [label="gini = 0.0\nsamples = 1\nvalue = [0, 1]\nclass = LEAVE", fillcolor="#399de5"] ;
66 -> 72 ;
73 [label="REPORTED_USAGE_LEVEL_high <= 0.5\ngini = 0.5\nsamples = 211\nvalue = [100, 111]\nclass = LEAVE", fillcolor="#ebf5fc"] ;
63 -> 73 ;
74 [label="HOUSE <= 262005.5\ngini = 0.5\nsamples = 191\nvalue = [87, 104]\nclass = LEAVE", fillcolor="#dfeffb"] ;
73 -> 74 ;
75 [label="gini = 0.0\nsamples = 3\nvalue = [0, 3]\nclass = LEAVE", fillcolor="#399de5"] ;
74 -> 75 ;
76 [label="INCOME <= 58421.0\ngini = 0.5\nsamples = 188\nvalue = [87, 101]\nclass = LEAVE", fillcolor="#e4f1fb"] ;
74 -> 76 ;
77 [label="OVER_15MINS_CALLS_PER_MONTH <= 0.5\ngini = 0.5\nsamples = 183\nvalue = [83, 100]\nclass = LEAVE", fillcolor="#ddeefb"] ;
76 -> 77 ;
78 [label="HANDSET_PRICE <= 227.5\ngini = 0.46\nsamples = 51\nvalue = [18, 33]\nclass = LEAVE", fillcolor="#a5d2f3"] ;
77 -> 78 ;
79 [label="INCOME <= 38007.5\ngini = 0.36\nsamples = 30\nvalue = [7, 23]\nclass = LEAVE", fillcolor="#75bbed"] ;
78 -> 79 ;
80 [label="HOUSE <= 286935.0\ngini = 0.48\nsamples = 17\nvalue = [7, 10]\nclass = LEAVE", fillcolor="#c4e2f7"] ;
79 -> 80 ;
81 [label="gini = 0.0\nsamples = 2\nvalue = [2, 0]\nclass = STAY", fillcolor="#e58139"] ;
80 -> 81 ;
82 [label="REPORTED_SATISFACTION_unsat <= 0.5\ngini = 0.44\nsamples = 15\nvalue = [5, 10]\nclass = LEAVE", fillcolor="#9ccef2"] ;
80 -> 82 ;
83 [label="REPORTED_SATISFACTION_sat <= 0.5\ngini = 0.3\nsamples = 11\nvalue = [2, 9]\nclass = LEAVE", fillcolor="#65b3eb"] ;
82 -> 83 ;
84 [label="HANDSET_PRICE <= 146.0\ngini = 0.18\nsamples = 10\nvalue = [1, 9]\nclass = LEAVE", fillcolor="#4fa8e8"] ;
83 -> 84 ;
85 [label="REPORTED_USAGE_LEVEL_very_high <= 0.5\ngini = 0.5\nsamples = 2\nvalue = [1, 1]\nclass = STAY", fillcolor="#ffffff"] ;
84 -> 85 ;
86 [label="gini = 0.0\nsamples = 1\nvalue = [1, 0]\nclass = STAY", fillcolor="#e58139"] ;
85 -> 86 ;
87 [label="gini = 0.0\nsamples = 1\nvalue = [0, 1]\nclass = LEAVE", fillcolor="#399de5"] ;
85 -> 87 ;
88 [label="gini = 0.0\nsamples = 8\nvalue = [0, 8]\nclass = LEAVE", fillcolor="#399de5"] ;
84 -> 88 ;
89 [label="gini = 0.0\nsamples = 1\nvalue = [1, 0]\nclass = STAY", fillcolor="#e58139"] ;
83 -> 89 ;
90 [label="CONSIDERING_CHANGE_OF_PLAN_no <= 0.5\ngini = 0.38\nsamples = 4\nvalue = [3, 1]\nclass = STAY", fillcolor="#eeab7b"] ;
82 -> 90 ;
91 [label="gini = 0.0\nsamples = 3\nvalue = [3, 0]\nclass = STAY", fillcolor="#e58139"] ;
90 -> 91 ;
92 [label="gini = 0.0\nsamples = 1\nvalue = [0, 1]\nclass = LEAVE", fillcolor="#399de5"] ;
90 -> 92 ;
93 [label="gini = 0.0\nsamples = 13\nvalue = [0, 13]\nclass = LEAVE", fillcolor="#399de5"] ;
79 -> 93 ;
94 [label="HOUSE <= 527378.5\ngini = 0.5\nsamples = 21\nvalue = [11, 10]\nclass = STAY", fillcolor="#fdf4ed"] ;
78 -> 94 ;
95 [label="AVERAGE_CALL_DURATION <= 11.5\ngini = 0.46\nsamples = 14\nvalue = [5, 9]\nclass = LEAVE", fillcolor="#a7d3f3"] ;
94 -> 95 ;
96 [label="INCOME <= 32591.0\ngini = 0.49\nsamples = 9\nvalue = [5, 4]\nclass = STAY", fillcolor="#fae6d7"] ;
95 -> 96 ;
97 [label="gini = 0.0\nsamples = 2\nvalue = [0, 2]\nclass = LEAVE", fillcolor="#399de5"] ;
96 -> 97 ;
98 [label="INCOME <= 51134.0\ngini = 0.41\nsamples = 7\nvalue = [5, 2]\nclass = STAY", fillcolor="#efb388"] ;
96 -> 98 ;
99 [label="gini = 0.0\nsamples = 4\nvalue = [4, 0]\nclass = STAY", fillcolor="#e58139"] ;
98 -> 99 ;
100 [label="AVERAGE_CALL_DURATION <= 5.5\ngini = 0.44\nsamples = 3\nvalue = [1, 2]\nclass = LEAVE", fillcolor="#9ccef2"] ;
98 -> 100 ;
101 [label="gini = 0.0\nsamples = 1\nvalue = [1, 0]\nclass = STAY", fillcolor="#e58139"] ;
100 -> 101 ;
102 [label="gini = 0.0\nsamples = 2\nvalue = [0, 2]\nclass = LEAVE", fillcolor="#399de5"] ;
100 -> 102 ;
103 [label="gini = 0.0\nsamples = 5\nvalue = [0, 5]\nclass = LEAVE", fillcolor="#399de5"] ;
95 -> 103 ;
104 [label="HOUSE <= 592996.5\ngini = 0.24\nsamples = 7\nvalue = [6, 1]\nclass = STAY", fillcolor="#e9965a"] ;
94 -> 104 ;
105 [label="gini = 0.0\nsamples = 6\nvalue = [6, 0]\nclass = STAY", fillcolor="#e58139"] ;
104 -> 105 ;
106 [label="gini = 0.0\nsamples = 1\nvalue = [0, 1]\nclass = LEAVE", fillcolor="#399de5"] ;
104 -> 106 ;
107 [label="HOUSE <= 434844.0\ngini = 0.5\nsamples = 132\nvalue = [65, 67]\nclass = LEAVE", fillcolor="#f9fcfe"] ;
77 -> 107 ;
108 [label="AVERAGE_CALL_DURATION <= 14.5\ngini = 0.47\nsamples = 57\nvalue = [35, 22]\nclass = STAY", fillcolor="#f5d0b5"] ;
107 -> 108 ;
109 [label="OVER_15MINS_CALLS_PER_MONTH <= 2.0\ngini = 0.44\nsamples = 51\nvalue = [34, 17]\nclass = STAY", fillcolor="#f2c09c"] ;
108 -> 109 ;
110 [label="CONSIDERING_CHANGE_OF_PLAN_perhaps <= 0.5\ngini = 0.2\nsamples = 18\nvalue = [16, 2]\nclass = STAY", fillcolor="#e89152"] ;
109 -> 110 ;
111 [label="HANDSET_PRICE <= 177.5\ngini = 0.11\nsamples = 17\nvalue = [16, 1]\nclass = STAY", fillcolor="#e78945"] ;
110 -> 111 ;
112 [label="REPORTED_SATISFACTION_very_sat <= 0.5\ngini = 0.44\nsamples = 3\nvalue = [2, 1]\nclass = STAY", fillcolor="#f2c09c"] ;
111 -> 112 ;
113 [label="gini = 0.0\nsamples = 2\nvalue = [2, 0]\nclass = STAY", fillcolor="#e58139"] ;
112 -> 113 ;
114 [label="gini = 0.0\nsamples = 1\nvalue = [0, 1]\nclass = LEAVE", fillcolor="#399de5"] ;
112 -> 114 ;
115 [label="gini = 0.0\nsamples = 14\nvalue = [14, 0]\nclass = STAY", fillcolor="#e58139"] ;
111 -> 115 ;
116 [label="gini = 0.0\nsamples = 1\nvalue = [0, 1]\nclass = LEAVE", fillcolor="#399de5"] ;
110 -> 116 ;
117 [label="HANDSET_PRICE <= 224.0\ngini = 0.5\nsamples = 33\nvalue = [18, 15]\nclass = STAY", fillcolor="#fbeade"] ;
109 -> 117 ;
118 [label="AVERAGE_CALL_DURATION <= 11.5\ngini = 0.42\nsamples = 23\nvalue = [16, 7]\nclass = STAY", fillcolor="#f0b890"] ;
117 -> 118 ;
119 [label="CONSIDERING_CHANGE_OF_PLAN_considering <= 0.5\ngini = 0.23\nsamples = 15\nvalue = [13, 2]\nclass = STAY", fillcolor="#e99457"] ;
118 -> 119 ;
120 [label="gini = 0.0\nsamples = 10\nvalue = [10, 0]\nclass = STAY", fillcolor="#e58139"] ;
119 -> 120 ;
121 [label="AVERAGE_CALL_DURATION <= 10.5\ngini = 0.48\nsamples = 5\nvalue = [3, 2]\nclass = STAY", fillcolor="#f6d5bd"] ;
119 -> 121 ;
122 [label="OVERAGE <= 56.5\ngini = 0.44\nsamples = 3\nvalue = [1, 2]\nclass = LEAVE", fillcolor="#9ccef2"] ;
121 -> 122 ;
123 [label="gini = 0.0\nsamples = 1\nvalue = [1, 0]\nclass = STAY", fillcolor="#e58139"] ;
122 -> 123 ;
124 [label="gini = 0.0\nsamples = 2\nvalue = [0, 2]\nclass = LEAVE", fillcolor="#399de5"] ;
122 -> 124 ;
125 [label="gini = 0.0\nsamples = 2\nvalue = [2, 0]\nclass = STAY", fillcolor="#e58139"] ;
121 -> 125 ;
126 [label="INCOME <= 35214.5\ngini = 0.47\nsamples = 8\nvalue = [3, 5]\nclass = LEAVE", fillcolor="#b0d8f5"] ;
118 -> 126 ;
127 [label="gini = 0.0\nsamples = 4\nvalue = [0, 4]\nclass = LEAVE", fillcolor="#399de5"] ;
126 -> 127 ;
128 [label="CONSIDERING_CHANGE_OF_PLAN_considering <= 0.5\ngini = 0.38\nsamples = 4\nvalue = [3, 1]\nclass = STAY", fillcolor="#eeab7b"] ;
126 -> 128 ;
129 [label="gini = 0.0\nsamples = 1\nvalue = [0, 1]\nclass = LEAVE", fillcolor="#399de5"] ;
128 -> 129 ;
130 [label="gini = 0.0\nsamples = 3\nvalue = [3, 0]\nclass = STAY", fillcolor="#e58139"] ;
128 -> 130 ;
131 [label="AVERAGE_CALL_DURATION <= 8.5\ngini = 0.32\nsamples = 10\nvalue = [2, 8]\nclass = LEAVE", fillcolor="#6ab6ec"] ;
117 -> 131 ;
132 [label="REPORTED_SATISFACTION_unsat <= 0.5\ngini = 0.44\nsamples = 3\nvalue = [2, 1]\nclass = STAY", fillcolor="#f2c09c"] ;
131 -> 132 ;
133 [label="gini = 0.0\nsamples = 2\nvalue = [2, 0]\nclass = STAY", fillcolor="#e58139"] ;
132 -> 133 ;
134 [label="gini = 0.0\nsamples = 1\nvalue = [0, 1]\nclass = LEAVE", fillcolor="#399de5"] ;
132 -> 134 ;
135 [label="gini = 0.0\nsamples = 7\nvalue = [0, 7]\nclass = LEAVE", fillcolor="#399de5"] ;
131 -> 135 ;
136 [label="INCOME <= 40038.0\ngini = 0.28\nsamples = 6\nvalue = [1, 5]\nclass = LEAVE", fillcolor="#61b1ea"] ;
108 -> 136 ;
137 [label="gini = 0.0\nsamples = 4\nvalue = [0, 4]\nclass = LEAVE", fillcolor="#399de5"] ;
136 -> 137 ;
138 [label="OVERAGE <= 28.5\ngini = 0.5\nsamples = 2\nvalue = [1, 1]\nclass = STAY", fillcolor="#ffffff"] ;
136 -> 138 ;
139 [label="gini = 0.0\nsamples = 1\nvalue = [0, 1]\nclass = LEAVE", fillcolor="#399de5"] ;
138 -> 139 ;
140 [label="gini = 0.0\nsamples = 1\nvalue = [1, 0]\nclass = STAY", fillcolor="#e58139"] ;
138 -> 140 ;
141 [label="HOUSE <= 593505.0\ngini = 0.48\nsamples = 75\nvalue = [30, 45]\nclass = LEAVE", fillcolor="#bddef6"] ;
107 -> 141 ;
142 [label="HOUSE <= 581631.0\ngini = 0.47\nsamples = 73\nvalue = [28, 45]\nclass = LEAVE", fillcolor="#b4daf5"] ;
141 -> 142 ;
143 [label="OVERAGE <= 40.0\ngini = 0.48\nsamples = 68\nvalue = [28, 40]\nclass = LEAVE", fillcolor="#c4e2f7"] ;
142 -> 143 ;
144 [label="HOUSE <= 558556.0\ngini = 0.5\nsamples = 44\nvalue = [22, 22]\nclass = STAY", fillcolor="#ffffff"] ;
143 -> 144 ;
145 [label="CONSIDERING_CHANGE_OF_PLAN_considering <= 0.5\ngini = 0.49\nsamples = 37\nvalue = [16, 21]\nclass = LEAVE", fillcolor="#d0e8f9"] ;
144 -> 145 ;
146 [label="OVER_15MINS_CALLS_PER_MONTH <= 2.0\ngini = 0.43\nsamples = 22\nvalue = [7, 15]\nclass = LEAVE", fillcolor="#95cbf1"] ;
145 -> 146 ;
147 [label="REPORTED_SATISFACTION_very_unsat <= 0.5\ngini = 0.48\nsamples = 18\nvalue = [7, 11]\nclass = LEAVE", fillcolor="#b7dbf6"] ;
146 -> 147 ;
148 [label="AVERAGE_CALL_DURATION <= 13.5\ngini = 0.38\nsamples = 12\nvalue = [3, 9]\nclass = LEAVE", fillcolor="#7bbeee"] ;
147 -> 148 ;
149 [label="CONSIDERING_CHANGE_OF_PLAN_no <= 0.5\ngini = 0.2\nsamples = 9\nvalue = [1, 8]\nclass = LEAVE", fillcolor="#52a9e8"] ;
148 -> 149 ;
150 [label="gini = 0.0\nsamples = 7\nvalue = [0, 7]\nclass = LEAVE", fillcolor="#399de5"] ;
149 -> 150 ;
151 [label="REPORTED_SATISFACTION_sat <= 0.5\ngini = 0.5\nsamples = 2\nvalue = [1, 1]\nclass = STAY", fillcolor="#ffffff"] ;
149 -> 151 ;
152 [label="gini = 0.0\nsamples = 1\nvalue = [1, 0]\nclass = STAY", fillcolor="#e58139"] ;
151 -> 152 ;
153 [label="gini = 0.0\nsamples = 1\nvalue = [0, 1]\nclass = LEAVE", fillcolor="#399de5"] ;
151 -> 153 ;
154 [label="INCOME <= 40336.5\ngini = 0.44\nsamples = 3\nvalue = [2, 1]\nclass = STAY", fillcolor="#f2c09c"] ;
148 -> 154 ;
155 [label="gini = 0.0\nsamples = 1\nvalue = [0, 1]\nclass = LEAVE", fillcolor="#399de5"] ;
154 -> 155 ;
156 [label="gini = 0.0\nsamples = 2\nvalue = [2, 0]\nclass = STAY", fillcolor="#e58139"] ;
154 -> 156 ;
157 [label="HANDSET_PRICE <= 232.5\ngini = 0.44\nsamples = 6\nvalue = [4, 2]\nclass = STAY", fillcolor="#f2c09c"] ;
147 -> 157 ;
158 [label="gini = 0.0\nsamples = 4\nvalue = [4, 0]\nclass = STAY", fillcolor="#e58139"] ;
157 -> 158 ;
159 [label="gini = 0.0\nsamples = 2\nvalue = [0, 2]\nclass = LEAVE", fillcolor="#399de5"] ;
157 -> 159 ;
160 [label="gini = 0.0\nsamples = 4\nvalue = [0, 4]\nclass = LEAVE", fillcolor="#399de5"] ;
146 -> 160 ;
161 [label="INCOME <= 27163.0\ngini = 0.48\nsamples = 15\nvalue = [9, 6]\nclass = STAY", fillcolor="#f6d5bd"] ;
145 -> 161 ;
162 [label="gini = 0.0\nsamples = 2\nvalue = [0, 2]\nclass = LEAVE", fillcolor="#399de5"] ;
161 -> 162 ;
163 [label="HOUSE <= 469651.0\ngini = 0.43\nsamples = 13\nvalue = [9, 4]\nclass = STAY", fillcolor="#f1b991"] ;
161 -> 163 ;
164 [label="gini = 0.0\nsamples = 5\nvalue = [5, 0]\nclass = STAY", fillcolor="#e58139"] ;
163 -> 164 ;
165 [label="AVERAGE_CALL_DURATION <= 8.5\ngini = 0.5\nsamples = 8\nvalue = [4, 4]\nclass = STAY", fillcolor="#ffffff"] ;
163 -> 165 ;
166 [label="gini = 0.0\nsamples = 3\nvalue = [3, 0]\nclass = STAY", fillcolor="#e58139"] ;
165 -> 166 ;
167 [label="INCOME <= 48819.5\ngini = 0.32\nsamples = 5\nvalue = [1, 4]\nclass = LEAVE", fillcolor="#6ab6ec"] ;
165 -> 167 ;
168 [label="gini = 0.0\nsamples = 4\nvalue = [0, 4]\nclass = LEAVE", fillcolor="#399de5"] ;
167 -> 168 ;
169 [label="gini = 0.0\nsamples = 1\nvalue = [1, 0]\nclass = STAY", fillcolor="#e58139"] ;
167 -> 169 ;
170 [label="AVERAGE_CALL_DURATION <= 6.5\ngini = 0.24\nsamples = 7\nvalue = [6, 1]\nclass = STAY", fillcolor="#e9965a"] ;
144 -> 170 ;
171 [label="gini = 0.0\nsamples = 1\nvalue = [0, 1]\nclass = LEAVE", fillcolor="#399de5"] ;
170 -> 171 ;
172 [label="gini = 0.0\nsamples = 6\nvalue = [6, 0]\nclass = STAY", fillcolor="#e58139"] ;
170 -> 172 ;
173 [label="CONSIDERING_CHANGE_OF_PLAN_perhaps <= 0.5\ngini = 0.38\nsamples = 24\nvalue = [6, 18]\nclass = LEAVE", fillcolor="#7bbeee"] ;
143 -> 173 ;
174 [label="REPORTED_SATISFACTION_unsat <= 0.5\ngini = 0.3\nsamples = 22\nvalue = [4, 18]\nclass = LEAVE", fillcolor="#65b3eb"] ;
173 -> 174 ;
175 [label="CONSIDERING_CHANGE_OF_PLAN_no <= 0.5\ngini = 0.19\nsamples = 19\nvalue = [2, 17]\nclass = LEAVE", fillcolor="#50a9e8"] ;
174 -> 175 ;
176 [label="gini = 0.0\nsamples = 14\nvalue = [0, 14]\nclass = LEAVE", fillcolor="#399de5"] ;
175 -> 176 ;
177 [label="OVERAGE <= 61.5\ngini = 0.48\nsamples = 5\nvalue = [2, 3]\nclass = LEAVE", fillcolor="#bddef6"] ;
175 -> 177 ;
178 [label="gini = 0.0\nsamples = 2\nvalue = [0, 2]\nclass = LEAVE", fillcolor="#399de5"] ;
177 -> 178 ;
179 [label="INCOME <= 27511.0\ngini = 0.44\nsamples = 3\nvalue = [2, 1]\nclass = STAY", fillcolor="#f2c09c"] ;
177 -> 179 ;
180 [label="gini = 0.0\nsamples = 1\nvalue = [0, 1]\nclass = LEAVE", fillcolor="#399de5"] ;
179 -> 180 ;
181 [label="gini = 0.0\nsamples = 2\nvalue = [2, 0]\nclass = STAY", fillcolor="#e58139"] ;
179 -> 181 ;
182 [label="REPORTED_USAGE_LEVEL_very_little <= 0.5\ngini = 0.44\nsamples = 3\nvalue = [2, 1]\nclass = STAY", fillcolor="#f2c09c"] ;
174 -> 182 ;
183 [label="gini = 0.0\nsamples = 2\nvalue = [2, 0]\nclass = STAY", fillcolor="#e58139"] ;
182 -> 183 ;
184 [label="gini = 0.0\nsamples = 1\nvalue = [0, 1]\nclass = LEAVE", fillcolor="#399de5"] ;
182 -> 184 ;
185 [label="gini = 0.0\nsamples = 2\nvalue = [2, 0]\nclass = STAY", fillcolor="#e58139"] ;
173 -> 185 ;
186 [label="gini = 0.0\nsamples = 5\nvalue = [0, 5]\nclass = LEAVE", fillcolor="#399de5"] ;
142 -> 186 ;
187 [label="gini = 0.0\nsamples = 2\nvalue = [2, 0]\nclass = STAY", fillcolor="#e58139"] ;
141 -> 187 ;
188 [label="REPORTED_USAGE_LEVEL_little <= 0.5\ngini = 0.32\nsamples = 5\nvalue = [4, 1]\nclass = STAY", fillcolor="#eca06a"] ;
76 -> 188 ;
189 [label="gini = 0.0\nsamples = 1\nvalue = [0, 1]\nclass = LEAVE", fillcolor="#399de5"] ;
188 -> 189 ;
190 [label="gini = 0.0\nsamples = 4\nvalue = [4, 0]\nclass = STAY", fillcolor="#e58139"] ;
188 -> 190 ;
191 [label="OVERAGE <= 56.5\ngini = 0.45\nsamples = 20\nvalue = [13, 7]\nclass = STAY", fillcolor="#f3c5a4"] ;
73 -> 191 ;
192 [label="HANDSET_PRICE <= 180.0\ngini = 0.4\nsamples = 18\nvalue = [13, 5]\nclass = STAY", fillcolor="#efb185"] ;
191 -> 192 ;
193 [label="gini = 0.0\nsamples = 6\nvalue = [6, 0]\nclass = STAY", fillcolor="#e58139"] ;
192 -> 193 ;
194 [label="OVER_15MINS_CALLS_PER_MONTH <= 2.0\ngini = 0.49\nsamples = 12\nvalue = [7, 5]\nclass = STAY", fillcolor="#f8dbc6"] ;
192 -> 194 ;
195 [label="HOUSE <= 347040.0\ngini = 0.47\nsamples = 8\nvalue = [3, 5]\nclass = LEAVE", fillcolor="#b0d8f5"] ;
194 -> 195 ;
196 [label="gini = 0.0\nsamples = 3\nvalue = [0, 3]\nclass = LEAVE", fillcolor="#399de5"] ;
195 -> 196 ;
197 [label="REPORTED_SATISFACTION_very_unsat <= 0.5\ngini = 0.48\nsamples = 5\nvalue = [3, 2]\nclass = STAY", fillcolor="#f6d5bd"] ;
195 -> 197 ;
198 [label="INCOME <= 27031.0\ngini = 0.44\nsamples = 3\nvalue = [1, 2]\nclass = LEAVE", fillcolor="#9ccef2"] ;
197 -> 198 ;
199 [label="gini = 0.0\nsamples = 1\nvalue = [1, 0]\nclass = STAY", fillcolor="#e58139"] ;
198 -> 199 ;
200 [label="gini = 0.0\nsamples = 2\nvalue = [0, 2]\nclass = LEAVE", fillcolor="#399de5"] ;
198 -> 200 ;
201 [label="gini = 0.0\nsamples = 2\nvalue = [2, 0]\nclass = STAY", fillcolor="#e58139"] ;
197 -> 201 ;
202 [label="gini = 0.0\nsamples = 4\nvalue = [4, 0]\nclass = STAY", fillcolor="#e58139"] ;
194 -> 202 ;
203 [label="gini = 0.0\nsamples = 2\nvalue = [0, 2]\nclass = LEAVE", fillcolor="#399de5"] ;
191 -> 203 ;
204 [label="INCOME <= 24394.0\ngini = 0.46\nsamples = 94\nvalue = [61, 33]\nclass = STAY", fillcolor="#f3c5a4"] ;
32 -> 204 ;
205 [label="INCOME <= 20528.5\ngini = 0.12\nsamples = 16\nvalue = [15, 1]\nclass = STAY", fillcolor="#e78946"] ;
204 -> 205 ;
206 [label="HOUSE <= 449530.0\ngini = 0.44\nsamples = 3\nvalue = [2, 1]\nclass = STAY", fillcolor="#f2c09c"] ;
205 -> 206 ;
207 [label="gini = 0.0\nsamples = 1\nvalue = [0, 1]\nclass = LEAVE", fillcolor="#399de5"] ;
206 -> 207 ;
208 [label="gini = 0.0\nsamples = 2\nvalue = [2, 0]\nclass = STAY", fillcolor="#e58139"] ;
206 -> 208 ;
209 [label="gini = 0.0\nsamples = 13\nvalue = [13, 0]\nclass = STAY", fillcolor="#e58139"] ;
205 -> 209 ;
210 [label="INCOME <= 32988.0\ngini = 0.48\nsamples = 78\nvalue = [46, 32]\nclass = STAY", fillcolor="#f7d9c3"] ;
204 -> 210 ;
211 [label="HANDSET_PRICE <= 221.0\ngini = 0.36\nsamples = 17\nvalue = [4, 13]\nclass = LEAVE", fillcolor="#76bbed"] ;
210 -> 211 ;
212 [label="HANDSET_PRICE <= 204.0\ngini = 0.48\nsamples = 10\nvalue = [4, 6]\nclass = LEAVE", fillcolor="#bddef6"] ;
211 -> 212 ;
213 [label="INCOME <= 27935.5\ngini = 0.38\nsamples = 8\nvalue = [2, 6]\nclass = LEAVE", fillcolor="#7bbeee"] ;
212 -> 213 ;
214 [label="INCOME <= 27664.5\ngini = 0.44\nsamples = 3\nvalue = [2, 1]\nclass = STAY", fillcolor="#f2c09c"] ;
213 -> 214 ;
215 [label="gini = 0.0\nsamples = 1\nvalue = [0, 1]\nclass = LEAVE", fillcolor="#399de5"] ;
214 -> 215 ;
216 [label="gini = 0.0\nsamples = 2\nvalue = [2, 0]\nclass = STAY", fillcolor="#e58139"] ;
214 -> 216 ;
217 [label="gini = 0.0\nsamples = 5\nvalue = [0, 5]\nclass = LEAVE", fillcolor="#399de5"] ;
213 -> 217 ;
218 [label="gini = 0.0\nsamples = 2\nvalue = [2, 0]\nclass = STAY", fillcolor="#e58139"] ;
212 -> 218 ;
219 [label="gini = 0.0\nsamples = 7\nvalue = [0, 7]\nclass = LEAVE", fillcolor="#399de5"] ;
211 -> 219 ;
220 [label="REPORTED_SATISFACTION_very_sat <= 0.5\ngini = 0.43\nsamples = 61\nvalue = [42, 19]\nclass = STAY", fillcolor="#f1ba93"] ;
210 -> 220 ;
221 [label="REPORTED_USAGE_LEVEL_very_little <= 0.5\ngini = 0.34\nsamples = 41\nvalue = [32, 9]\nclass = STAY", fillcolor="#eca471"] ;
220 -> 221 ;
222 [label="INCOME <= 38682.0\ngini = 0.25\nsamples = 34\nvalue = [29, 5]\nclass = STAY", fillcolor="#e9975b"] ;
221 -> 222 ;
223 [label="AVERAGE_CALL_DURATION <= 10.5\ngini = 0.49\nsamples = 7\nvalue = [4, 3]\nclass = STAY", fillcolor="#f8e0ce"] ;
222 -> 223 ;
224 [label="HOUSE <= 242518.5\ngini = 0.38\nsamples = 4\nvalue = [1, 3]\nclass = LEAVE", fillcolor="#7bbeee"] ;
223 -> 224 ;
225 [label="gini = 0.0\nsamples = 1\nvalue = [1, 0]\nclass = STAY", fillcolor="#e58139"] ;
224 -> 225 ;
226 [label="gini = 0.0\nsamples = 3\nvalue = [0, 3]\nclass = LEAVE", fillcolor="#399de5"] ;
224 -> 226 ;
227 [label="gini = 0.0\nsamples = 3\nvalue = [3, 0]\nclass = STAY", fillcolor="#e58139"] ;
223 -> 227 ;
228 [label="HOUSE <= 491138.5\ngini = 0.14\nsamples = 27\nvalue = [25, 2]\nclass = STAY", fillcolor="#e78b49"] ;
222 -> 228 ;
229 [label="gini = 0.0\nsamples = 18\nvalue = [18, 0]\nclass = STAY", fillcolor="#e58139"] ;
228 -> 229 ;
230 [label="HOUSE <= 505920.0\ngini = 0.35\nsamples = 9\nvalue = [7, 2]\nclass = STAY", fillcolor="#eca572"] ;
228 -> 230 ;
231 [label="gini = 0.0\nsamples = 1\nvalue = [0, 1]\nclass = LEAVE", fillcolor="#399de5"] ;
230 -> 231 ;
232 [label="OVERAGE <= 75.0\ngini = 0.22\nsamples = 8\nvalue = [7, 1]\nclass = STAY", fillcolor="#e99355"] ;
230 -> 232 ;
233 [label="gini = 0.0\nsamples = 7\nvalue = [7, 0]\nclass = STAY", fillcolor="#e58139"] ;
232 -> 233 ;
234 [label="gini = 0.0\nsamples = 1\nvalue = [0, 1]\nclass = LEAVE", fillcolor="#399de5"] ;
232 -> 234 ;
235 [label="INCOME <= 43879.5\ngini = 0.49\nsamples = 7\nvalue = [3, 4]\nclass = LEAVE", fillcolor="#cee6f8"] ;
221 -> 235 ;
236 [label="gini = 0.0\nsamples = 2\nvalue = [2, 0]\nclass = STAY", fillcolor="#e58139"] ;
235 -> 236 ;
237 [label="INCOME <= 56417.5\ngini = 0.32\nsamples = 5\nvalue = [1, 4]\nclass = LEAVE", fillcolor="#6ab6ec"] ;
235 -> 237 ;
238 [label="gini = 0.0\nsamples = 3\nvalue = [0, 3]\nclass = LEAVE", fillcolor="#399de5"] ;
237 -> 238 ;
239 [label="CONSIDERING_CHANGE_OF_PLAN_considering <= 0.5\ngini = 0.5\nsamples = 2\nvalue = [1, 1]\nclass = STAY", fillcolor="#ffffff"] ;
237 -> 239 ;
240 [label="gini = 0.0\nsamples = 1\nvalue = [1, 0]\nclass = STAY", fillcolor="#e58139"] ;
239 -> 240 ;
241 [label="gini = 0.0\nsamples = 1\nvalue = [0, 1]\nclass = LEAVE", fillcolor="#399de5"] ;
239 -> 241 ;
242 [label="HANDSET_PRICE <= 221.0\ngini = 0.5\nsamples = 20\nvalue = [10, 10]\nclass = STAY", fillcolor="#ffffff"] ;
220 -> 242 ;
243 [label="HANDSET_PRICE <= 143.0\ngini = 0.38\nsamples = 12\nvalue = [9, 3]\nclass = STAY", fillcolor="#eeab7b"] ;
242 -> 243 ;
244 [label="REPORTED_USAGE_LEVEL_very_little <= 0.5\ngini = 0.44\nsamples = 3\nvalue = [1, 2]\nclass = LEAVE", fillcolor="#9ccef2"] ;
243 -> 244 ;
245 [label="gini = 0.0\nsamples = 2\nvalue = [0, 2]\nclass = LEAVE", fillcolor="#399de5"] ;
244 -> 245 ;
246 [label="gini = 0.0\nsamples = 1\nvalue = [1, 0]\nclass = STAY", fillcolor="#e58139"] ;
244 -> 246 ;
247 [label="INCOME <= 40377.5\ngini = 0.2\nsamples = 9\nvalue = [8, 1]\nclass = STAY", fillcolor="#e89152"] ;
243 -> 247 ;
248 [label="gini = 0.0\nsamples = 6\nvalue = [6, 0]\nclass = STAY", fillcolor="#e58139"] ;
247 -> 248 ;
249 [label="INCOME <= 42715.0\ngini = 0.44\nsamples = 3\nvalue = [2, 1]\nclass = STAY", fillcolor="#f2c09c"] ;
247 -> 249 ;
250 [label="gini = 0.0\nsamples = 1\nvalue = [0, 1]\nclass = LEAVE", fillcolor="#399de5"] ;
249 -> 250 ;
251 [label="gini = 0.0\nsamples = 2\nvalue = [2, 0]\nclass = STAY", fillcolor="#e58139"] ;
249 -> 251 ;
252 [label="INCOME <= 56351.0\ngini = 0.22\nsamples = 8\nvalue = [1, 7]\nclass = LEAVE", fillcolor="#55abe9"] ;
242 -> 252 ;
253 [label="gini = 0.0\nsamples = 6\nvalue = [0, 6]\nclass = LEAVE", fillcolor="#399de5"] ;
252 -> 253 ;
254 [label="HANDSET_PRICE <= 374.5\ngini = 0.5\nsamples = 2\nvalue = [1, 1]\nclass = STAY", fillcolor="#ffffff"] ;
252 -> 254 ;
255 [label="gini = 0.0\nsamples = 1\nvalue = [0, 1]\nclass = LEAVE", fillcolor="#399de5"] ;
254 -> 255 ;
256 [label="gini = 0.0\nsamples = 1\nvalue = [1, 0]\nclass = STAY", fillcolor="#e58139"] ;
254 -> 256 ;
257 [label="HOUSE <= 277901.0\ngini = 0.47\nsamples = 408\nvalue = [253, 155]\nclass = STAY", fillcolor="#f5ceb2"] ;
17 -> 257 ;
258 [label="HANDSET_PRICE <= 227.5\ngini = 0.5\nsamples = 164\nvalue = [85, 79]\nclass = STAY", fillcolor="#fdf6f1"] ;
257 -> 258 ;
259 [label="HOUSE <= 164853.5\ngini = 0.49\nsamples = 103\nvalue = [44, 59]\nclass = LEAVE", fillcolor="#cde6f8"] ;
258 -> 259 ;
260 [label="gini = 0.0\nsamples = 5\nvalue = [5, 0]\nclass = STAY", fillcolor="#e58139"] ;
259 -> 260 ;
261 [label="HOUSE <= 176144.5\ngini = 0.48\nsamples = 98\nvalue = [39, 59]\nclass = LEAVE", fillcolor="#bcdef6"] ;
259 -> 261 ;
262 [label="gini = 0.0\nsamples = 9\nvalue = [0, 9]\nclass = LEAVE", fillcolor="#399de5"] ;
261 -> 262 ;
263 [label="HOUSE <= 268376.0\ngini = 0.49\nsamples = 89\nvalue = [39, 50]\nclass = LEAVE", fillcolor="#d3e9f9"] ;
261 -> 263 ;
264 [label="OVER_15MINS_CALLS_PER_MONTH <= 14.5\ngini = 0.5\nsamples = 83\nvalue = [39, 44]\nclass = LEAVE", fillcolor="#e8f4fc"] ;
263 -> 264 ;
265 [label="INCOME <= 22611.5\ngini = 0.5\nsamples = 79\nvalue = [39, 40]\nclass = LEAVE", fillcolor="#fafdfe"] ;
264 -> 265 ;
266 [label="OVER_15MINS_CALLS_PER_MONTH <= 0.5\ngini = 0.24\nsamples = 7\nvalue = [6, 1]\nclass = STAY", fillcolor="#e9965a"] ;
265 -> 266 ;
267 [label="REPORTED_USAGE_LEVEL_little <= 0.5\ngini = 0.5\nsamples = 2\nvalue = [1, 1]\nclass = STAY", fillcolor="#ffffff"] ;
266 -> 267 ;
268 [label="gini = 0.0\nsamples = 1\nvalue = [1, 0]\nclass = STAY", fillcolor="#e58139"] ;
267 -> 268 ;
269 [label="gini = 0.0\nsamples = 1\nvalue = [0, 1]\nclass = LEAVE", fillcolor="#399de5"] ;
267 -> 269 ;
270 [label="gini = 0.0\nsamples = 5\nvalue = [5, 0]\nclass = STAY", fillcolor="#e58139"] ;
266 -> 270 ;
271 [label="CONSIDERING_CHANGE_OF_PLAN_perhaps <= 0.5\ngini = 0.5\nsamples = 72\nvalue = [33, 39]\nclass = LEAVE", fillcolor="#e1f0fb"] ;
265 -> 271 ;
272 [label="AVERAGE_CALL_DURATION <= 14.5\ngini = 0.49\nsamples = 66\nvalue = [28, 38]\nclass = LEAVE", fillcolor="#cbe5f8"] ;
271 -> 272 ;
273 [label="INCOME <= 26810.0\ngini = 0.5\nsamples = 61\nvalue = [28, 33]\nclass = LEAVE", fillcolor="#e1f0fb"] ;
272 -> 273 ;
274 [label="AVERAGE_CALL_DURATION <= 2.5\ngini = 0.32\nsamples = 10\nvalue = [2, 8]\nclass = LEAVE", fillcolor="#6ab6ec"] ;
273 -> 274 ;
275 [label="gini = 0.0\nsamples = 1\nvalue = [1, 0]\nclass = STAY", fillcolor="#e58139"] ;
274 -> 275 ;
276 [label="AVERAGE_CALL_DURATION <= 11.5\ngini = 0.2\nsamples = 9\nvalue = [1, 8]\nclass = LEAVE", fillcolor="#52a9e8"] ;
274 -> 276 ;
277 [label="gini = 0.0\nsamples = 6\nvalue = [0, 6]\nclass = LEAVE", fillcolor="#399de5"] ;
276 -> 277 ;
278 [label="REPORTED_SATISFACTION_very_sat <= 0.5\ngini = 0.44\nsamples = 3\nvalue = [1, 2]\nclass = LEAVE", fillcolor="#9ccef2"] ;
276 -> 278 ;
279 [label="gini = 0.0\nsamples = 2\nvalue = [0, 2]\nclass = LEAVE", fillcolor="#399de5"] ;
278 -> 279 ;
280 [label="gini = 0.0\nsamples = 1\nvalue = [1, 0]\nclass = STAY", fillcolor="#e58139"] ;
278 -> 280 ;
281 [label="INCOME <= 41252.5\ngini = 0.5\nsamples = 51\nvalue = [26, 25]\nclass = STAY", fillcolor="#fefaf7"] ;
273 -> 281 ;
282 [label="INCOME <= 37396.0\ngini = 0.48\nsamples = 35\nvalue = [21, 14]\nclass = STAY", fillcolor="#f6d5bd"] ;
281 -> 282 ;
283 [label="HOUSE <= 198865.5\ngini = 0.5\nsamples = 26\nvalue = [13, 13]\nclass = STAY", fillcolor="#ffffff"] ;
282 -> 283 ;
284 [label="INCOME <= 33904.0\ngini = 0.38\nsamples = 8\nvalue = [6, 2]\nclass = STAY", fillcolor="#eeab7b"] ;
283 -> 284 ;
285 [label="gini = 0.0\nsamples = 6\nvalue = [6, 0]\nclass = STAY", fillcolor="#e58139"] ;
284 -> 285 ;
286 [label="gini = 0.0\nsamples = 2\nvalue = [0, 2]\nclass = LEAVE", fillcolor="#399de5"] ;
284 -> 286 ;
287 [label="INCOME <= 36110.0\ngini = 0.48\nsamples = 18\nvalue = [7, 11]\nclass = LEAVE", fillcolor="#b7dbf6"] ;
283 -> 287 ;
288 [label="HOUSE <= 236489.0\ngini = 0.43\nsamples = 16\nvalue = [5, 11]\nclass = LEAVE", fillcolor="#93caf1"] ;
287 -> 288 ;
289 [label="HANDSET_PRICE <= 210.0\ngini = 0.2\nsamples = 9\nvalue = [1, 8]\nclass = LEAVE", fillcolor="#52a9e8"] ;
288 -> 289 ;
290 [label="gini = 0.0\nsamples = 7\nvalue = [0, 7]\nclass = LEAVE", fillcolor="#399de5"] ;
289 -> 290 ;
291 [label="HOUSE <= 220055.0\ngini = 0.5\nsamples = 2\nvalue = [1, 1]\nclass = STAY", fillcolor="#ffffff"] ;
289 -> 291 ;
292 [label="gini = 0.0\nsamples = 1\nvalue = [1, 0]\nclass = STAY", fillcolor="#e58139"] ;
291 -> 292 ;
293 [label="gini = 0.0\nsamples = 1\nvalue = [0, 1]\nclass = LEAVE", fillcolor="#399de5"] ;
291 -> 293 ;
294 [label="AVERAGE_CALL_DURATION <= 10.0\ngini = 0.49\nsamples = 7\nvalue = [4, 3]\nclass = STAY", fillcolor="#f8e0ce"] ;
288 -> 294 ;
295 [label="INCOME <= 34589.0\ngini = 0.32\nsamples = 5\nvalue = [4, 1]\nclass = STAY", fillcolor="#eca06a"] ;
294 -> 295 ;
296 [label="gini = 0.0\nsamples = 4\nvalue = [4, 0]\nclass = STAY", fillcolor="#e58139"] ;
295 -> 296 ;
297 [label="gini = 0.0\nsamples = 1\nvalue = [0, 1]\nclass = LEAVE", fillcolor="#399de5"] ;
295 -> 297 ;
298 [label="gini = 0.0\nsamples = 2\nvalue = [0, 2]\nclass = LEAVE", fillcolor="#399de5"] ;
294 -> 298 ;
299 [label="gini = 0.0\nsamples = 2\nvalue = [2, 0]\nclass = STAY", fillcolor="#e58139"] ;
287 -> 299 ;
300 [label="REPORTED_USAGE_LEVEL_very_little <= 0.5\ngini = 0.2\nsamples = 9\nvalue = [8, 1]\nclass = STAY", fillcolor="#e89152"] ;
282 -> 300 ;
301 [label="gini = 0.0\nsamples = 7\nvalue = [7, 0]\nclass = STAY", fillcolor="#e58139"] ;
300 -> 301 ;
302 [label="INCOME <= 39455.0\ngini = 0.5\nsamples = 2\nvalue = [1, 1]\nclass = STAY", fillcolor="#ffffff"] ;
300 -> 302 ;
303 [label="gini = 0.0\nsamples = 1\nvalue = [1, 0]\nclass = STAY", fillcolor="#e58139"] ;
302 -> 303 ;
304 [label="gini = 0.0\nsamples = 1\nvalue = [0, 1]\nclass = LEAVE", fillcolor="#399de5"] ;
302 -> 304 ;
305 [label="HOUSE <= 264437.5\ngini = 0.43\nsamples = 16\nvalue = [5, 11]\nclass = LEAVE", fillcolor="#93caf1"] ;
281 -> 305 ;
306 [label="OVER_15MINS_CALLS_PER_MONTH <= 3.5\ngini = 0.34\nsamples = 14\nvalue = [3, 11]\nclass = LEAVE", fillcolor="#6fb8ec"] ;
305 -> 306 ;
307 [label="gini = 0.0\nsamples = 10\nvalue = [0, 10]\nclass = LEAVE", fillcolor="#399de5"] ;
306 -> 307 ;
308 [label="CONSIDERING_CHANGE_OF_PLAN_never_thought <= 0.5\ngini = 0.38\nsamples = 4\nvalue = [3, 1]\nclass = STAY", fillcolor="#eeab7b"] ;
306 -> 308 ;
309 [label="gini = 0.0\nsamples = 3\nvalue = [3, 0]\nclass = STAY", fillcolor="#e58139"] ;
308 -> 309 ;
310 [label="gini = 0.0\nsamples = 1\nvalue = [0, 1]\nclass = LEAVE", fillcolor="#399de5"] ;
308 -> 310 ;
311 [label="gini = 0.0\nsamples = 2\nvalue = [2, 0]\nclass = STAY", fillcolor="#e58139"] ;
305 -> 311 ;
312 [label="gini = 0.0\nsamples = 5\nvalue = [0, 5]\nclass = LEAVE", fillcolor="#399de5"] ;
272 -> 312 ;
313 [label="OVERAGE <= 86.0\ngini = 0.28\nsamples = 6\nvalue = [5, 1]\nclass = STAY", fillcolor="#ea9a61"] ;
271 -> 313 ;
314 [label="gini = 0.0\nsamples = 5\nvalue = [5, 0]\nclass = STAY", fillcolor="#e58139"] ;
313 -> 314 ;
315 [label="gini = 0.0\nsamples = 1\nvalue = [0, 1]\nclass = LEAVE", fillcolor="#399de5"] ;
313 -> 315 ;
316 [label="gini = 0.0\nsamples = 4\nvalue = [0, 4]\nclass = LEAVE", fillcolor="#399de5"] ;
264 -> 316 ;
317 [label="gini = 0.0\nsamples = 6\nvalue = [0, 6]\nclass = LEAVE", fillcolor="#399de5"] ;
263 -> 317 ;
318 [label="HOUSE <= 259231.0\ngini = 0.44\nsamples = 61\nvalue = [41, 20]\nclass = STAY", fillcolor="#f2be9a"] ;
258 -> 318 ;
319 [label="HOUSE <= 167008.0\ngini = 0.38\nsamples = 51\nvalue = [38, 13]\nclass = STAY", fillcolor="#eeac7d"] ;
318 -> 319 ;
320 [label="gini = 0.0\nsamples = 2\nvalue = [0, 2]\nclass = LEAVE", fillcolor="#399de5"] ;
319 -> 320 ;
321 [label="INCOME <= 22486.0\ngini = 0.35\nsamples = 49\nvalue = [38, 11]\nclass = STAY", fillcolor="#eda572"] ;
319 -> 321 ;
322 [label="HANDSET_PRICE <= 235.0\ngini = 0.38\nsamples = 4\nvalue = [1, 3]\nclass = LEAVE", fillcolor="#7bbeee"] ;
321 -> 322 ;
323 [label="gini = 0.0\nsamples = 1\nvalue = [1, 0]\nclass = STAY", fillcolor="#e58139"] ;
322 -> 323 ;
324 [label="gini = 0.0\nsamples = 3\nvalue = [0, 3]\nclass = LEAVE", fillcolor="#399de5"] ;
322 -> 324 ;
325 [label="HOUSE <= 222461.5\ngini = 0.29\nsamples = 45\nvalue = [37, 8]\nclass = STAY", fillcolor="#eb9c64"] ;
321 -> 325 ;
326 [label="INCOME <= 56875.5\ngini = 0.14\nsamples = 27\nvalue = [25, 2]\nclass = STAY", fillcolor="#e78b49"] ;
325 -> 326 ;
327 [label="REPORTED_USAGE_LEVEL_very_high <= 0.5\ngini = 0.08\nsamples = 25\nvalue = [24, 1]\nclass = STAY", fillcolor="#e68641"] ;
326 -> 327 ;
328 [label="gini = 0.0\nsamples = 20\nvalue = [20, 0]\nclass = STAY", fillcolor="#e58139"] ;
327 -> 328 ;
329 [label="REPORTED_SATISFACTION_very_sat <= 0.5\ngini = 0.32\nsamples = 5\nvalue = [4, 1]\nclass = STAY", fillcolor="#eca06a"] ;
327 -> 329 ;
330 [label="gini = 0.0\nsamples = 4\nvalue = [4, 0]\nclass = STAY", fillcolor="#e58139"] ;
329 -> 330 ;
331 [label="gini = 0.0\nsamples = 1\nvalue = [0, 1]\nclass = LEAVE", fillcolor="#399de5"] ;
329 -> 331 ;
332 [label="HOUSE <= 198215.5\ngini = 0.5\nsamples = 2\nvalue = [1, 1]\nclass = STAY", fillcolor="#ffffff"] ;
326 -> 332 ;
333 [label="gini = 0.0\nsamples = 1\nvalue = [1, 0]\nclass = STAY", fillcolor="#e58139"] ;
332 -> 333 ;
334 [label="gini = 0.0\nsamples = 1\nvalue = [0, 1]\nclass = LEAVE", fillcolor="#399de5"] ;
332 -> 334 ;
335 [label="OVERAGE <= 61.0\ngini = 0.44\nsamples = 18\nvalue = [12, 6]\nclass = STAY", fillcolor="#f2c09c"] ;
325 -> 335 ;
336 [label="REPORTED_USAGE_LEVEL_very_little <= 0.5\ngini = 0.32\nsamples = 15\nvalue = [12, 3]\nclass = STAY", fillcolor="#eca06a"] ;
335 -> 336 ;
337 [label="OVER_15MINS_CALLS_PER_MONTH <= 4.5\ngini = 0.15\nsamples = 12\nvalue = [11, 1]\nclass = STAY", fillcolor="#e78c4b"] ;
336 -> 337 ;
338 [label="gini = 0.0\nsamples = 10\nvalue = [10, 0]\nclass = STAY", fillcolor="#e58139"] ;
337 -> 338 ;
339 [label="OVERAGE <= 57.0\ngini = 0.5\nsamples = 2\nvalue = [1, 1]\nclass = STAY", fillcolor="#ffffff"] ;
337 -> 339 ;
340 [label="gini = 0.0\nsamples = 1\nvalue = [0, 1]\nclass = LEAVE", fillcolor="#399de5"] ;
339 -> 340 ;
341 [label="gini = 0.0\nsamples = 1\nvalue = [1, 0]\nclass = STAY", fillcolor="#e58139"] ;
339 -> 341 ;
342 [label="HOUSE <= 227768.0\ngini = 0.44\nsamples = 3\nvalue = [1, 2]\nclass = LEAVE", fillcolor="#9ccef2"] ;
336 -> 342 ;
343 [label="gini = 0.0\nsamples = 1\nvalue = [1, 0]\nclass = STAY", fillcolor="#e58139"] ;
342 -> 343 ;
344 [label="gini = 0.0\nsamples = 2\nvalue = [0, 2]\nclass = LEAVE", fillcolor="#399de5"] ;
342 -> 344 ;
345 [label="gini = 0.0\nsamples = 3\nvalue = [0, 3]\nclass = LEAVE", fillcolor="#399de5"] ;
335 -> 345 ;
346 [label="REPORTED_SATISFACTION_very_unsat <= 0.5\ngini = 0.42\nsamples = 10\nvalue = [3, 7]\nclass = LEAVE", fillcolor="#8ec7f0"] ;
318 -> 346 ;
347 [label="gini = 0.0\nsamples = 6\nvalue = [0, 6]\nclass = LEAVE", fillcolor="#399de5"] ;
346 -> 347 ;
348 [label="HOUSE <= 274590.0\ngini = 0.38\nsamples = 4\nvalue = [3, 1]\nclass = STAY", fillcolor="#eeab7b"] ;
346 -> 348 ;
349 [label="gini = 0.0\nsamples = 3\nvalue = [3, 0]\nclass = STAY", fillcolor="#e58139"] ;
348 -> 349 ;
350 [label="gini = 0.0\nsamples = 1\nvalue = [0, 1]\nclass = LEAVE", fillcolor="#399de5"] ;
348 -> 350 ;
351 [label="HOUSE <= 569974.5\ngini = 0.43\nsamples = 244\nvalue = [168, 76]\nclass = STAY", fillcolor="#f1ba93"] ;
257 -> 351 ;
352 [label="HOUSE <= 467391.0\ngini = 0.44\nsamples = 230\nvalue = [154, 76]\nclass = STAY", fillcolor="#f2bf9b"] ;
351 -> 352 ;
353 [label="INCOME <= 25764.5\ngini = 0.4\nsamples = 158\nvalue = [115, 43]\nclass = STAY", fillcolor="#efb083"] ;
352 -> 353 ;
354 [label="CONSIDERING_CHANGE_OF_PLAN_no <= 0.5\ngini = 0.5\nsamples = 24\nvalue = [13, 11]\nclass = STAY", fillcolor="#fbece1"] ;
353 -> 354 ;
355 [label="HOUSE <= 310021.0\ngini = 0.47\nsamples = 16\nvalue = [6, 10]\nclass = LEAVE", fillcolor="#b0d8f5"] ;
354 -> 355 ;
356 [label="gini = 0.0\nsamples = 5\nvalue = [0, 5]\nclass = LEAVE", fillcolor="#399de5"] ;
355 -> 356 ;
357 [label="INCOME <= 24596.0\ngini = 0.5\nsamples = 11\nvalue = [6, 5]\nclass = STAY", fillcolor="#fbeade"] ;
355 -> 357 ;
358 [label="INCOME <= 20176.5\ngini = 0.28\nsamples = 6\nvalue = [5, 1]\nclass = STAY", fillcolor="#ea9a61"] ;
357 -> 358 ;
359 [label="gini = 0.0\nsamples = 1\nvalue = [0, 1]\nclass = LEAVE", fillcolor="#399de5"] ;
358 -> 359 ;
360 [label="gini = 0.0\nsamples = 5\nvalue = [5, 0]\nclass = STAY", fillcolor="#e58139"] ;
358 -> 360 ;
361 [label="REPORTED_SATISFACTION_very_unsat <= 0.5\ngini = 0.32\nsamples = 5\nvalue = [1, 4]\nclass = LEAVE", fillcolor="#6ab6ec"] ;
357 -> 361 ;
362 [label="gini = 0.0\nsamples = 4\nvalue = [0, 4]\nclass = LEAVE", fillcolor="#399de5"] ;
361 -> 362 ;
363 [label="gini = 0.0\nsamples = 1\nvalue = [1, 0]\nclass = STAY", fillcolor="#e58139"] ;
361 -> 363 ;
364 [label="INCOME <= 25644.5\ngini = 0.22\nsamples = 8\nvalue = [7, 1]\nclass = STAY", fillcolor="#e99355"] ;
354 -> 364 ;
365 [label="gini = 0.0\nsamples = 7\nvalue = [7, 0]\nclass = STAY", fillcolor="#e58139"] ;
364 -> 365 ;
366 [label="gini = 0.0\nsamples = 1\nvalue = [0, 1]\nclass = LEAVE", fillcolor="#399de5"] ;
364 -> 366 ;
367 [label="HOUSE <= 411153.5\ngini = 0.36\nsamples = 134\nvalue = [102, 32]\nclass = STAY", fillcolor="#eda977"] ;
353 -> 367 ;
368 [label="HOUSE <= 309367.0\ngini = 0.41\nsamples = 104\nvalue = [74, 30]\nclass = STAY", fillcolor="#f0b489"] ;
367 -> 368 ;
369 [label="REPORTED_USAGE_LEVEL_very_little <= 0.5\ngini = 0.25\nsamples = 34\nvalue = [29, 5]\nclass = STAY", fillcolor="#e9975b"] ;
368 -> 369 ;
370 [label="HANDSET_PRICE <= 448.0\ngini = 0.13\nsamples = 28\nvalue = [26, 2]\nclass = STAY", fillcolor="#e78b48"] ;
369 -> 370 ;
371 [label="HOUSE <= 281921.5\ngini = 0.08\nsamples = 25\nvalue = [24, 1]\nclass = STAY", fillcolor="#e68641"] ;
370 -> 371 ;
372 [label="HOUSE <= 280999.5\ngini = 0.38\nsamples = 4\nvalue = [3, 1]\nclass = STAY", fillcolor="#eeab7b"] ;
371 -> 372 ;
373 [label="gini = 0.0\nsamples = 3\nvalue = [3, 0]\nclass = STAY", fillcolor="#e58139"] ;
372 -> 373 ;
374 [label="gini = 0.0\nsamples = 1\nvalue = [0, 1]\nclass = LEAVE", fillcolor="#399de5"] ;
372 -> 374 ;
375 [label="gini = 0.0\nsamples = 21\nvalue = [21, 0]\nclass = STAY", fillcolor="#e58139"] ;
371 -> 375 ;
376 [label="REPORTED_USAGE_LEVEL_very_high <= 0.5\ngini = 0.44\nsamples = 3\nvalue = [2, 1]\nclass = STAY", fillcolor="#f2c09c"] ;
370 -> 376 ;
377 [label="gini = 0.0\nsamples = 1\nvalue = [0, 1]\nclass = LEAVE", fillcolor="#399de5"] ;
376 -> 377 ;
378 [label="gini = 0.0\nsamples = 2\nvalue = [2, 0]\nclass = STAY", fillcolor="#e58139"] ;
376 -> 378 ;
379 [label="HOUSE <= 286056.0\ngini = 0.5\nsamples = 6\nvalue = [3, 3]\nclass = STAY", fillcolor="#ffffff"] ;
369 -> 379 ;
380 [label="gini = 0.0\nsamples = 2\nvalue = [2, 0]\nclass = STAY", fillcolor="#e58139"] ;
379 -> 380 ;
381 [label="OVERAGE <= 88.5\ngini = 0.38\nsamples = 4\nvalue = [1, 3]\nclass = LEAVE", fillcolor="#7bbeee"] ;
379 -> 381 ;
382 [label="gini = 0.0\nsamples = 3\nvalue = [0, 3]\nclass = LEAVE", fillcolor="#399de5"] ;
381 -> 382 ;
383 [label="gini = 0.0\nsamples = 1\nvalue = [1, 0]\nclass = STAY", fillcolor="#e58139"] ;
381 -> 383 ;
384 [label="HOUSE <= 311801.0\ngini = 0.46\nsamples = 70\nvalue = [45, 25]\nclass = STAY", fillcolor="#f3c7a7"] ;
368 -> 384 ;
385 [label="gini = 0.0\nsamples = 2\nvalue = [0, 2]\nclass = LEAVE", fillcolor="#399de5"] ;
384 -> 385 ;
386 [label="AVERAGE_CALL_DURATION <= 10.5\ngini = 0.45\nsamples = 68\nvalue = [45, 23]\nclass = STAY", fillcolor="#f2c19e"] ;
384 -> 386 ;
387 [label="CONSIDERING_CHANGE_OF_PLAN_no <= 0.5\ngini = 0.49\nsamples = 29\nvalue = [16, 13]\nclass = STAY", fillcolor="#fae7da"] ;
386 -> 387 ;
388 [label="REPORTED_USAGE_LEVEL_high <= 0.5\ngini = 0.45\nsamples = 23\nvalue = [15, 8]\nclass = STAY", fillcolor="#f3c4a3"] ;
387 -> 388 ;
389 [label="HANDSET_PRICE <= 236.5\ngini = 0.41\nsamples = 21\nvalue = [15, 6]\nclass = STAY", fillcolor="#efb388"] ;
388 -> 389 ;
390 [label="HANDSET_PRICE <= 229.5\ngini = 0.47\nsamples = 16\nvalue = [10, 6]\nclass = STAY", fillcolor="#f5cdb0"] ;
389 -> 390 ;
391 [label="INCOME <= 31289.0\ngini = 0.41\nsamples = 14\nvalue = [10, 4]\nclass = STAY", fillcolor="#efb388"] ;
390 -> 391 ;
392 [label="gini = 0.0\nsamples = 5\nvalue = [5, 0]\nclass = STAY", fillcolor="#e58139"] ;
391 -> 392 ;
393 [label="OVER_15MINS_CALLS_PER_MONTH <= 3.5\ngini = 0.49\nsamples = 9\nvalue = [5, 4]\nclass = STAY", fillcolor="#fae6d7"] ;
391 -> 393 ;
394 [label="HOUSE <= 357957.5\ngini = 0.49\nsamples = 7\nvalue = [3, 4]\nclass = LEAVE", fillcolor="#cee6f8"] ;
393 -> 394 ;
395 [label="gini = 0.0\nsamples = 2\nvalue = [0, 2]\nclass = LEAVE", fillcolor="#399de5"] ;
394 -> 395 ;
396 [label="REPORTED_USAGE_LEVEL_very_little <= 0.5\ngini = 0.48\nsamples = 5\nvalue = [3, 2]\nclass = STAY", fillcolor="#f6d5bd"] ;
394 -> 396 ;
397 [label="CONSIDERING_CHANGE_OF_PLAN_perhaps <= 0.5\ngini = 0.44\nsamples = 3\nvalue = [1, 2]\nclass = LEAVE", fillcolor="#9ccef2"] ;
396 -> 397 ;
398 [label="gini = 0.0\nsamples = 2\nvalue = [0, 2]\nclass = LEAVE", fillcolor="#399de5"] ;
397 -> 398 ;
399 [label="gini = 0.0\nsamples = 1\nvalue = [1, 0]\nclass = STAY", fillcolor="#e58139"] ;
397 -> 399 ;
400 [label="gini = 0.0\nsamples = 2\nvalue = [2, 0]\nclass = STAY", fillcolor="#e58139"] ;
396 -> 400 ;
401 [label="gini = 0.0\nsamples = 2\nvalue = [2, 0]\nclass = STAY", fillcolor="#e58139"] ;
393 -> 401 ;
402 [label="gini = 0.0\nsamples = 2\nvalue = [0, 2]\nclass = LEAVE", fillcolor="#399de5"] ;
390 -> 402 ;
403 [label="gini = 0.0\nsamples = 5\nvalue = [5, 0]\nclass = STAY", fillcolor="#e58139"] ;
389 -> 403 ;
404 [label="gini = 0.0\nsamples = 2\nvalue = [0, 2]\nclass = LEAVE", fillcolor="#399de5"] ;
388 -> 404 ;
405 [label="AVERAGE_CALL_DURATION <= 5.0\ngini = 0.28\nsamples = 6\nvalue = [1, 5]\nclass = LEAVE", fillcolor="#61b1ea"] ;
387 -> 405 ;
406 [label="gini = 0.0\nsamples = 1\nvalue = [1, 0]\nclass = STAY", fillcolor="#e58139"] ;
405 -> 406 ;
407 [label="gini = 0.0\nsamples = 5\nvalue = [0, 5]\nclass = LEAVE", fillcolor="#399de5"] ;
405 -> 407 ;
408 [label="HOUSE <= 362455.5\ngini = 0.38\nsamples = 39\nvalue = [29, 10]\nclass = STAY", fillcolor="#eeac7d"] ;
386 -> 408 ;
409 [label="OVERAGE <= 51.5\ngini = 0.48\nsamples = 23\nvalue = [14, 9]\nclass = STAY", fillcolor="#f6d2b8"] ;
408 -> 409 ;
410 [label="AVERAGE_CALL_DURATION <= 12.5\ngini = 0.5\nsamples = 17\nvalue = [8, 9]\nclass = LEAVE", fillcolor="#e9f4fc"] ;
409 -> 410 ;
411 [label="INCOME <= 46006.0\ngini = 0.38\nsamples = 8\nvalue = [2, 6]\nclass = LEAVE", fillcolor="#7bbeee"] ;
410 -> 411 ;
412 [label="gini = 0.0\nsamples = 6\nvalue = [0, 6]\nclass = LEAVE", fillcolor="#399de5"] ;
411 -> 412 ;
413 [label="gini = 0.0\nsamples = 2\nvalue = [2, 0]\nclass = STAY", fillcolor="#e58139"] ;
411 -> 413 ;
414 [label="HOUSE <= 342457.0\ngini = 0.44\nsamples = 9\nvalue = [6, 3]\nclass = STAY", fillcolor="#f2c09c"] ;
410 -> 414 ;
415 [label="OVER_15MINS_CALLS_PER_MONTH <= 0.5\ngini = 0.48\nsamples = 5\nvalue = [2, 3]\nclass = LEAVE", fillcolor="#bddef6"] ;
414 -> 415 ;
416 [label="gini = 0.0\nsamples = 2\nvalue = [2, 0]\nclass = STAY", fillcolor="#e58139"] ;
415 -> 416 ;
417 [label="gini = 0.0\nsamples = 3\nvalue = [0, 3]\nclass = LEAVE", fillcolor="#399de5"] ;
415 -> 417 ;
418 [label="gini = 0.0\nsamples = 4\nvalue = [4, 0]\nclass = STAY", fillcolor="#e58139"] ;
414 -> 418 ;
419 [label="gini = 0.0\nsamples = 6\nvalue = [6, 0]\nclass = STAY", fillcolor="#e58139"] ;
409 -> 419 ;
420 [label="HANDSET_PRICE <= 150.5\ngini = 0.12\nsamples = 16\nvalue = [15, 1]\nclass = STAY", fillcolor="#e78946"] ;
408 -> 420 ;
421 [label="REPORTED_USAGE_LEVEL_very_little <= 0.5\ngini = 0.44\nsamples = 3\nvalue = [2, 1]\nclass = STAY", fillcolor="#f2c09c"] ;
420 -> 421 ;
422 [label="gini = 0.0\nsamples = 2\nvalue = [2, 0]\nclass = STAY", fillcolor="#e58139"] ;
421 -> 422 ;
423 [label="gini = 0.0\nsamples = 1\nvalue = [0, 1]\nclass = LEAVE", fillcolor="#399de5"] ;
421 -> 423 ;
424 [label="gini = 0.0\nsamples = 13\nvalue = [13, 0]\nclass = STAY", fillcolor="#e58139"] ;
420 -> 424 ;
425 [label="HANDSET_PRICE <= 165.5\ngini = 0.12\nsamples = 30\nvalue = [28, 2]\nclass = STAY", fillcolor="#e78a47"] ;
367 -> 425 ;
426 [label="HOUSE <= 462370.0\ngini = 0.38\nsamples = 8\nvalue = [6, 2]\nclass = STAY", fillcolor="#eeab7b"] ;
425 -> 426 ;
427 [label="HANDSET_PRICE <= 161.5\ngini = 0.24\nsamples = 7\nvalue = [6, 1]\nclass = STAY", fillcolor="#e9965a"] ;
426 -> 427 ;
428 [label="gini = 0.0\nsamples = 5\nvalue = [5, 0]\nclass = STAY", fillcolor="#e58139"] ;
427 -> 428 ;
429 [label="CONSIDERING_CHANGE_OF_PLAN_no <= 0.5\ngini = 0.5\nsamples = 2\nvalue = [1, 1]\nclass = STAY", fillcolor="#ffffff"] ;
427 -> 429 ;
430 [label="gini = 0.0\nsamples = 1\nvalue = [0, 1]\nclass = LEAVE", fillcolor="#399de5"] ;
429 -> 430 ;
431 [label="gini = 0.0\nsamples = 1\nvalue = [1, 0]\nclass = STAY", fillcolor="#e58139"] ;
429 -> 431 ;
432 [label="gini = 0.0\nsamples = 1\nvalue = [0, 1]\nclass = LEAVE", fillcolor="#399de5"] ;
426 -> 432 ;
433 [label="gini = 0.0\nsamples = 22\nvalue = [22, 0]\nclass = STAY", fillcolor="#e58139"] ;
425 -> 433 ;
434 [label="REPORTED_SATISFACTION_unsat <= 0.5\ngini = 0.5\nsamples = 72\nvalue = [39, 33]\nclass = STAY", fillcolor="#fbece1"] ;
352 -> 434 ;
435 [label="OVERAGE <= 58.5\ngini = 0.5\nsamples = 54\nvalue = [25, 29]\nclass = LEAVE", fillcolor="#e4f1fb"] ;
434 -> 435 ;
436 [label="HOUSE <= 468544.0\ngini = 0.49\nsamples = 36\nvalue = [20, 16]\nclass = STAY", fillcolor="#fae6d7"] ;
435 -> 436 ;
437 [label="gini = 0.0\nsamples = 2\nvalue = [0, 2]\nclass = LEAVE", fillcolor="#399de5"] ;
436 -> 437 ;
438 [label="INCOME <= 22727.5\ngini = 0.48\nsamples = 34\nvalue = [20, 14]\nclass = STAY", fillcolor="#f7d9c4"] ;
436 -> 438 ;
439 [label="gini = 0.0\nsamples = 2\nvalue = [0, 2]\nclass = LEAVE", fillcolor="#399de5"] ;
438 -> 439 ;
440 [label="OVERAGE <= 51.0\ngini = 0.47\nsamples = 32\nvalue = [20, 12]\nclass = STAY", fillcolor="#f5cdb0"] ;
438 -> 440 ;
441 [label="HOUSE <= 544551.0\ngini = 0.49\nsamples = 28\nvalue = [16, 12]\nclass = STAY", fillcolor="#f8e0ce"] ;
440 -> 441 ;
442 [label="INCOME <= 27536.5\ngini = 0.47\nsamples = 26\nvalue = [16, 10]\nclass = STAY", fillcolor="#f5d0b5"] ;
441 -> 442 ;
443 [label="gini = 0.0\nsamples = 6\nvalue = [6, 0]\nclass = STAY", fillcolor="#e58139"] ;
442 -> 443 ;
444 [label="HOUSE <= 532367.5\ngini = 0.5\nsamples = 20\nvalue = [10, 10]\nclass = STAY", fillcolor="#ffffff"] ;
442 -> 444 ;
445 [label="HOUSE <= 516554.5\ngini = 0.49\nsamples = 18\nvalue = [8, 10]\nclass = LEAVE", fillcolor="#d7ebfa"] ;
444 -> 445 ;
446 [label="OVERAGE <= 17.5\ngini = 0.5\nsamples = 15\nvalue = [8, 7]\nclass = STAY", fillcolor="#fcefe6"] ;
445 -> 446 ;
447 [label="CONSIDERING_CHANGE_OF_PLAN_considering <= 0.5\ngini = 0.47\nsamples = 13\nvalue = [8, 5]\nclass = STAY", fillcolor="#f5d0b5"] ;
446 -> 447 ;
448 [label="INCOME <= 44688.0\ngini = 0.44\nsamples = 6\nvalue = [2, 4]\nclass = LEAVE", fillcolor="#9ccef2"] ;
447 -> 448 ;
449 [label="gini = 0.0\nsamples = 2\nvalue = [2, 0]\nclass = STAY", fillcolor="#e58139"] ;
448 -> 449 ;
450 [label="gini = 0.0\nsamples = 4\nvalue = [0, 4]\nclass = LEAVE", fillcolor="#399de5"] ;
448 -> 450 ;
451 [label="INCOME <= 29640.5\ngini = 0.24\nsamples = 7\nvalue = [6, 1]\nclass = STAY", fillcolor="#e9965a"] ;
447 -> 451 ;
452 [label="gini = 0.0\nsamples = 1\nvalue = [0, 1]\nclass = LEAVE", fillcolor="#399de5"] ;
451 -> 452 ;
453 [label="gini = 0.0\nsamples = 6\nvalue = [6, 0]\nclass = STAY", fillcolor="#e58139"] ;
451 -> 453 ;
454 [label="gini = 0.0\nsamples = 2\nvalue = [0, 2]\nclass = LEAVE", fillcolor="#399de5"] ;
446 -> 454 ;
455 [label="gini = 0.0\nsamples = 3\nvalue = [0, 3]\nclass = LEAVE", fillcolor="#399de5"] ;
445 -> 455 ;
456 [label="gini = 0.0\nsamples = 2\nvalue = [2, 0]\nclass = STAY", fillcolor="#e58139"] ;
444 -> 456 ;
457 [label="gini = 0.0\nsamples = 2\nvalue = [0, 2]\nclass = LEAVE", fillcolor="#399de5"] ;
441 -> 457 ;
458 [label="gini = 0.0\nsamples = 4\nvalue = [4, 0]\nclass = STAY", fillcolor="#e58139"] ;
440 -> 458 ;
459 [label="REPORTED_SATISFACTION_very_unsat <= 0.5\ngini = 0.4\nsamples = 18\nvalue = [5, 13]\nclass = LEAVE", fillcolor="#85c3ef"] ;
435 -> 459 ;
460 [label="AVERAGE_CALL_DURATION <= 11.5\ngini = 0.5\nsamples = 10\nvalue = [5, 5]\nclass = STAY", fillcolor="#ffffff"] ;
459 -> 460 ;
461 [label="INCOME <= 44334.5\ngini = 0.41\nsamples = 7\nvalue = [5, 2]\nclass = STAY", fillcolor="#efb388"] ;
460 -> 461 ;
462 [label="gini = 0.0\nsamples = 4\nvalue = [4, 0]\nclass = STAY", fillcolor="#e58139"] ;
461 -> 462 ;
463 [label="HANDSET_PRICE <= 361.0\ngini = 0.44\nsamples = 3\nvalue = [1, 2]\nclass = LEAVE", fillcolor="#9ccef2"] ;
461 -> 463 ;
464 [label="gini = 0.0\nsamples = 2\nvalue = [0, 2]\nclass = LEAVE", fillcolor="#399de5"] ;
463 -> 464 ;
465 [label="gini = 0.0\nsamples = 1\nvalue = [1, 0]\nclass = STAY", fillcolor="#e58139"] ;
463 -> 465 ;
466 [label="gini = 0.0\nsamples = 3\nvalue = [0, 3]\nclass = LEAVE", fillcolor="#399de5"] ;
460 -> 466 ;
467 [label="gini = 0.0\nsamples = 8\nvalue = [0, 8]\nclass = LEAVE", fillcolor="#399de5"] ;
459 -> 467 ;
468 [label="HOUSE <= 479955.5\ngini = 0.35\nsamples = 18\nvalue = [14, 4]\nclass = STAY", fillcolor="#eca572"] ;
434 -> 468 ;
469 [label="gini = 0.0\nsamples = 1\nvalue = [0, 1]\nclass = LEAVE", fillcolor="#399de5"] ;
468 -> 469 ;
470 [label="HANDSET_PRICE <= 143.5\ngini = 0.29\nsamples = 17\nvalue = [14, 3]\nclass = STAY", fillcolor="#eb9c63"] ;
468 -> 470 ;
471 [label="gini = 0.0\nsamples = 1\nvalue = [0, 1]\nclass = LEAVE", fillcolor="#399de5"] ;
470 -> 471 ;
472 [label="INCOME <= 55720.5\ngini = 0.22\nsamples = 16\nvalue = [14, 2]\nclass = STAY", fillcolor="#e99355"] ;
470 -> 472 ;
473 [label="INCOME <= 29763.0\ngini = 0.12\nsamples = 15\nvalue = [14, 1]\nclass = STAY", fillcolor="#e78a47"] ;
472 -> 473 ;
474 [label="INCOME <= 27473.5\ngini = 0.38\nsamples = 4\nvalue = [3, 1]\nclass = STAY", fillcolor="#eeab7b"] ;
473 -> 474 ;
475 [label="gini = 0.0\nsamples = 3\nvalue = [3, 0]\nclass = STAY", fillcolor="#e58139"] ;
474 -> 475 ;
476 [label="gini = 0.0\nsamples = 1\nvalue = [0, 1]\nclass = LEAVE", fillcolor="#399de5"] ;
474 -> 476 ;
477 [label="gini = 0.0\nsamples = 11\nvalue = [11, 0]\nclass = STAY", fillcolor="#e58139"] ;
473 -> 477 ;
478 [label="gini = 0.0\nsamples = 1\nvalue = [0, 1]\nclass = LEAVE", fillcolor="#399de5"] ;
472 -> 478 ;
479 [label="gini = 0.0\nsamples = 14\nvalue = [14, 0]\nclass = STAY", fillcolor="#e58139"] ;
351 -> 479 ;
480 [label="HANDSET_PRICE <= 349.5\ngini = 0.5\nsamples = 1225\nvalue = [603, 622]\nclass = LEAVE", fillcolor="#f9fcfe"] ;
4 -> 480 ;
481 [label="AVERAGE_CALL_DURATION <= 4.5\ngini = 0.49\nsamples = 372\nvalue = [158, 214]\nclass = LEAVE", fillcolor="#cbe5f8"] ;
480 -> 481 ;
482 [label="HOUSE <= 240229.5\ngini = 0.42\nsamples = 20\nvalue = [14, 6]\nclass = STAY", fillcolor="#f0b78e"] ;
481 -> 482 ;
483 [label="INCOME <= 83779.5\ngini = 0.49\nsamples = 9\nvalue = [4, 5]\nclass = LEAVE", fillcolor="#d7ebfa"] ;
482 -> 483 ;
484 [label="gini = 0.0\nsamples = 3\nvalue = [0, 3]\nclass = LEAVE", fillcolor="#399de5"] ;
483 -> 484 ;
485 [label="REPORTED_SATISFACTION_very_sat <= 0.5\ngini = 0.44\nsamples = 6\nvalue = [4, 2]\nclass = STAY", fillcolor="#f2c09c"] ;
483 -> 485 ;
486 [label="gini = 0.0\nsamples = 3\nvalue = [3, 0]\nclass = STAY", fillcolor="#e58139"] ;
485 -> 486 ;
487 [label="HOUSE <= 189839.0\ngini = 0.44\nsamples = 3\nvalue = [1, 2]\nclass = LEAVE", fillcolor="#9ccef2"] ;
485 -> 487 ;
488 [label="gini = 0.0\nsamples = 1\nvalue = [1, 0]\nclass = STAY", fillcolor="#e58139"] ;
487 -> 488 ;
489 [label="gini = 0.0\nsamples = 2\nvalue = [0, 2]\nclass = LEAVE", fillcolor="#399de5"] ;
487 -> 489 ;
490 [label="OVER_15MINS_CALLS_PER_MONTH <= 4.5\ngini = 0.17\nsamples = 11\nvalue = [10, 1]\nclass = STAY", fillcolor="#e88e4d"] ;
482 -> 490 ;
491 [label="gini = 0.0\nsamples = 10\nvalue = [10, 0]\nclass = STAY", fillcolor="#e58139"] ;
490 -> 491 ;
492 [label="gini = 0.0\nsamples = 1\nvalue = [0, 1]\nclass = LEAVE", fillcolor="#399de5"] ;
490 -> 492 ;
493 [label="HOUSE <= 163171.5\ngini = 0.48\nsamples = 352\nvalue = [144, 208]\nclass = LEAVE", fillcolor="#c2e1f7"] ;
481 -> 493 ;
494 [label="AVERAGE_CALL_DURATION <= 14.5\ngini = 0.13\nsamples = 14\nvalue = [1, 13]\nclass = LEAVE", fillcolor="#48a5e7"] ;
493 -> 494 ;
495 [label="gini = 0.0\nsamples = 13\nvalue = [0, 13]\nclass = LEAVE", fillcolor="#399de5"] ;
494 -> 495 ;
496 [label="gini = 0.0\nsamples = 1\nvalue = [1, 0]\nclass = STAY", fillcolor="#e58139"] ;
494 -> 496 ;
497 [label="INCOME <= 129599.0\ngini = 0.49\nsamples = 338\nvalue = [143, 195]\nclass = LEAVE", fillcolor="#cae5f8"] ;
493 -> 497 ;
498 [label="AVERAGE_CALL_DURATION <= 5.5\ngini = 0.49\nsamples = 323\nvalue = [141, 182]\nclass = LEAVE", fillcolor="#d2e9f9"] ;
497 -> 498 ;
499 [label="gini = 0.0\nsamples = 6\nvalue = [0, 6]\nclass = LEAVE", fillcolor="#399de5"] ;
498 -> 499 ;
500 [label="OVER_15MINS_CALLS_PER_MONTH <= 0.5\ngini = 0.49\nsamples = 317\nvalue = [141, 176]\nclass = LEAVE", fillcolor="#d8ecfa"] ;
498 -> 500 ;
501 [label="HOUSE <= 554132.0\ngini = 0.5\nsamples = 79\nvalue = [43, 36]\nclass = STAY", fillcolor="#fbeadf"] ;
500 -> 501 ;
502 [label="HOUSE <= 495766.5\ngini = 0.5\nsamples = 75\nvalue = [39, 36]\nclass = STAY", fillcolor="#fdf5f0"] ;
501 -> 502 ;
503 [label="COLLEGE <= 0.5\ngini = 0.49\nsamples = 66\nvalue = [38, 28]\nclass = STAY", fillcolor="#f8decb"] ;
502 -> 503 ;
504 [label="REPORTED_SATISFACTION_very_unsat <= 0.5\ngini = 0.41\nsamples = 31\nvalue = [22, 9]\nclass = STAY", fillcolor="#f0b58a"] ;
503 -> 504 ;
505 [label="HOUSE <= 178982.0\ngini = 0.5\nsamples = 17\nvalue = [9, 8]\nclass = STAY", fillcolor="#fcf1e9"] ;
504 -> 505 ;
506 [label="gini = 0.0\nsamples = 3\nvalue = [0, 3]\nclass = LEAVE", fillcolor="#399de5"] ;
505 -> 506 ;
507 [label="AVERAGE_CALL_DURATION <= 10.5\ngini = 0.46\nsamples = 14\nvalue = [9, 5]\nclass = STAY", fillcolor="#f3c7a7"] ;
505 -> 507 ;
508 [label="INCOME <= 85769.0\ngini = 0.41\nsamples = 7\nvalue = [2, 5]\nclass = LEAVE", fillcolor="#88c4ef"] ;
507 -> 508 ;
509 [label="gini = 0.0\nsamples = 5\nvalue = [0, 5]\nclass = LEAVE", fillcolor="#399de5"] ;
508 -> 509 ;
510 [label="gini = 0.0\nsamples = 2\nvalue = [2, 0]\nclass = STAY", fillcolor="#e58139"] ;
508 -> 510 ;
511 [label="gini = 0.0\nsamples = 7\nvalue = [7, 0]\nclass = STAY", fillcolor="#e58139"] ;
507 -> 511 ;
512 [label="REPORTED_USAGE_LEVEL_very_high <= 0.5\ngini = 0.13\nsamples = 14\nvalue = [13, 1]\nclass = STAY", fillcolor="#e78b48"] ;
504 -> 512 ;
513 [label="gini = 0.0\nsamples = 11\nvalue = [11, 0]\nclass = STAY", fillcolor="#e58139"] ;
512 -> 513 ;
514 [label="CONSIDERING_CHANGE_OF_PLAN_considering <= 0.5\ngini = 0.44\nsamples = 3\nvalue = [2, 1]\nclass = STAY", fillcolor="#f2c09c"] ;
512 -> 514 ;
515 [label="gini = 0.0\nsamples = 2\nvalue = [2, 0]\nclass = STAY", fillcolor="#e58139"] ;
514 -> 515 ;
516 [label="gini = 0.0\nsamples = 1\nvalue = [0, 1]\nclass = LEAVE", fillcolor="#399de5"] ;
514 -> 516 ;
517 [label="HANDSET_PRICE <= 315.5\ngini = 0.5\nsamples = 35\nvalue = [16, 19]\nclass = LEAVE", fillcolor="#e0f0fb"] ;
503 -> 517 ;
518 [label="REPORTED_USAGE_LEVEL_little <= 0.5\ngini = 0.49\nsamples = 24\nvalue = [14, 10]\nclass = STAY", fillcolor="#f8dbc6"] ;
517 -> 518 ;
519 [label="INCOME <= 80788.0\ngini = 0.46\nsamples = 14\nvalue = [5, 9]\nclass = LEAVE", fillcolor="#a7d3f3"] ;
518 -> 519 ;
520 [label="HANDSET_PRICE <= 269.5\ngini = 0.47\nsamples = 8\nvalue = [5, 3]\nclass = STAY", fillcolor="#f5cdb0"] ;
519 -> 520 ;
521 [label="REPORTED_SATISFACTION_very_unsat <= 0.5\ngini = 0.38\nsamples = 4\nvalue = [1, 3]\nclass = LEAVE", fillcolor="#7bbeee"] ;
520 -> 521 ;
522 [label="gini = 0.0\nsamples = 3\nvalue = [0, 3]\nclass = LEAVE", fillcolor="#399de5"] ;
521 -> 522 ;
523 [label="gini = 0.0\nsamples = 1\nvalue = [1, 0]\nclass = STAY", fillcolor="#e58139"] ;
521 -> 523 ;
524 [label="gini = 0.0\nsamples = 4\nvalue = [4, 0]\nclass = STAY", fillcolor="#e58139"] ;
520 -> 524 ;
525 [label="gini = 0.0\nsamples = 6\nvalue = [0, 6]\nclass = LEAVE", fillcolor="#399de5"] ;
519 -> 525 ;
526 [label="HOUSE <= 208213.5\ngini = 0.18\nsamples = 10\nvalue = [9, 1]\nclass = STAY", fillcolor="#e88f4f"] ;
518 -> 526 ;
527 [label="gini = 0.0\nsamples = 1\nvalue = [0, 1]\nclass = LEAVE", fillcolor="#399de5"] ;
526 -> 527 ;
528 [label="gini = 0.0\nsamples = 9\nvalue = [9, 0]\nclass = STAY", fillcolor="#e58139"] ;
526 -> 528 ;
529 [label="REPORTED_USAGE_LEVEL_very_little <= 0.5\ngini = 0.3\nsamples = 11\nvalue = [2, 9]\nclass = LEAVE", fillcolor="#65b3eb"] ;
517 -> 529 ;
530 [label="gini = 0.0\nsamples = 8\nvalue = [0, 8]\nclass = LEAVE", fillcolor="#399de5"] ;
529 -> 530 ;
531 [label="HOUSE <= 193032.5\ngini = 0.44\nsamples = 3\nvalue = [2, 1]\nclass = STAY", fillcolor="#f2c09c"] ;
529 -> 531 ;
532 [label="gini = 0.0\nsamples = 1\nvalue = [0, 1]\nclass = LEAVE", fillcolor="#399de5"] ;
531 -> 532 ;
533 [label="gini = 0.0\nsamples = 2\nvalue = [2, 0]\nclass = STAY", fillcolor="#e58139"] ;
531 -> 533 ;
534 [label="REPORTED_USAGE_LEVEL_very_high <= 0.5\ngini = 0.2\nsamples = 9\nvalue = [1, 8]\nclass = LEAVE", fillcolor="#52a9e8"] ;
502 -> 534 ;
535 [label="gini = 0.0\nsamples = 7\nvalue = [0, 7]\nclass = LEAVE", fillcolor="#399de5"] ;
534 -> 535 ;
536 [label="CONSIDERING_CHANGE_OF_PLAN_considering <= 0.5\ngini = 0.5\nsamples = 2\nvalue = [1, 1]\nclass = STAY", fillcolor="#ffffff"] ;
534 -> 536 ;
537 [label="gini = 0.0\nsamples = 1\nvalue = [0, 1]\nclass = LEAVE", fillcolor="#399de5"] ;
536 -> 537 ;
538 [label="gini = 0.0\nsamples = 1\nvalue = [1, 0]\nclass = STAY", fillcolor="#e58139"] ;
536 -> 538 ;
539 [label="gini = 0.0\nsamples = 4\nvalue = [4, 0]\nclass = STAY", fillcolor="#e58139"] ;
501 -> 539 ;
540 [label="HOUSE <= 187804.0\ngini = 0.48\nsamples = 238\nvalue = [98, 140]\nclass = LEAVE", fillcolor="#c4e2f7"] ;
500 -> 540 ;
541 [label="INCOME <= 97789.0\ngini = 0.45\nsamples = 20\nvalue = [13, 7]\nclass = STAY", fillcolor="#f3c5a4"] ;
540 -> 541 ;
542 [label="OVER_15MINS_CALLS_PER_MONTH <= 3.5\ngini = 0.4\nsamples = 18\nvalue = [13, 5]\nclass = STAY", fillcolor="#efb185"] ;
541 -> 542 ;
543 [label="CONSIDERING_CHANGE_OF_PLAN_no <= 0.5\ngini = 0.26\nsamples = 13\nvalue = [11, 2]\nclass = STAY", fillcolor="#ea985d"] ;
542 -> 543 ;
544 [label="gini = 0.0\nsamples = 9\nvalue = [9, 0]\nclass = STAY", fillcolor="#e58139"] ;
543 -> 544 ;
545 [label="OVERAGE <= 21.0\ngini = 0.5\nsamples = 4\nvalue = [2, 2]\nclass = STAY", fillcolor="#ffffff"] ;
543 -> 545 ;
546 [label="REPORTED_SATISFACTION_very_unsat <= 0.5\ngini = 0.44\nsamples = 3\nvalue = [1, 2]\nclass = LEAVE", fillcolor="#9ccef2"] ;
545 -> 546 ;
547 [label="gini = 0.0\nsamples = 2\nvalue = [0, 2]\nclass = LEAVE", fillcolor="#399de5"] ;
546 -> 547 ;
548 [label="gini = 0.0\nsamples = 1\nvalue = [1, 0]\nclass = STAY", fillcolor="#e58139"] ;
546 -> 548 ;
549 [label="gini = 0.0\nsamples = 1\nvalue = [1, 0]\nclass = STAY", fillcolor="#e58139"] ;
545 -> 549 ;
550 [label="HANDSET_PRICE <= 285.5\ngini = 0.48\nsamples = 5\nvalue = [2, 3]\nclass = LEAVE", fillcolor="#bddef6"] ;
542 -> 550 ;
551 [label="gini = 0.0\nsamples = 2\nvalue = [2, 0]\nclass = STAY", fillcolor="#e58139"] ;
550 -> 551 ;
552 [label="gini = 0.0\nsamples = 3\nvalue = [0, 3]\nclass = LEAVE", fillcolor="#399de5"] ;
550 -> 552 ;
553 [label="gini = 0.0\nsamples = 2\nvalue = [0, 2]\nclass = LEAVE", fillcolor="#399de5"] ;
541 -> 553 ;
554 [label="AVERAGE_CALL_DURATION <= 12.5\ngini = 0.48\nsamples = 218\nvalue = [85, 133]\nclass = LEAVE", fillcolor="#b8dcf6"] ;
540 -> 554 ;
555 [label="HOUSE <= 199532.0\ngini = 0.5\nsamples = 131\nvalue = [60, 71]\nclass = LEAVE", fillcolor="#e0f0fb"] ;
554 -> 555 ;
556 [label="gini = 0.0\nsamples = 6\nvalue = [0, 6]\nclass = LEAVE", fillcolor="#399de5"] ;
555 -> 556 ;
557 [label="INCOME <= 101044.0\ngini = 0.5\nsamples = 125\nvalue = [60, 65]\nclass = LEAVE", fillcolor="#f0f7fd"] ;
555 -> 557 ;
558 [label="OVERAGE <= 83.5\ngini = 0.5\nsamples = 121\nvalue = [56, 65]\nclass = LEAVE", fillcolor="#e4f1fb"] ;
557 -> 558 ;
559 [label="CONSIDERING_CHANGE_OF_PLAN_perhaps <= 0.5\ngini = 0.49\nsamples = 117\nvalue = [52, 65]\nclass = LEAVE", fillcolor="#d7ebfa"] ;
558 -> 559 ;
560 [label="CONSIDERING_CHANGE_OF_PLAN_never_thought <= 0.5\ngini = 0.5\nsamples = 110\nvalue = [51, 59]\nclass = LEAVE", fillcolor="#e4f2fb"] ;
559 -> 560 ;
561 [label="OVER_15MINS_CALLS_PER_MONTH <= 17.5\ngini = 0.5\nsamples = 97\nvalue = [48, 49]\nclass = LEAVE", fillcolor="#fbfdfe"] ;
560 -> 561 ;
562 [label="HANDSET_PRICE <= 300.0\ngini = 0.5\nsamples = 94\nvalue = [45, 49]\nclass = LEAVE", fillcolor="#eff7fd"] ;
561 -> 562 ;
563 [label="OVERAGE <= 63.5\ngini = 0.47\nsamples = 49\nvalue = [19, 30]\nclass = LEAVE", fillcolor="#b6dbf5"] ;
562 -> 563 ;
564 [label="HOUSE <= 531118.0\ngini = 0.5\nsamples = 36\nvalue = [17, 19]\nclass = LEAVE", fillcolor="#eaf5fc"] ;
563 -> 564 ;
565 [label="REPORTED_USAGE_LEVEL_high <= 0.5\ngini = 0.5\nsamples = 31\nvalue = [17, 14]\nclass = STAY", fillcolor="#fae9dc"] ;
564 -> 565 ;
566 [label="REPORTED_SATISFACTION_sat <= 0.5\ngini = 0.47\nsamples = 27\nvalue = [17, 10]\nclass = STAY", fillcolor="#f4cbad"] ;
565 -> 566 ;
567 [label="INCOME <= 96769.0\ngini = 0.41\nsamples = 24\nvalue = [17, 7]\nclass = STAY", fillcolor="#f0b58b"] ;
566 -> 567 ;
568 [label="REPORTED_USAGE_LEVEL_little <= 0.5\ngini = 0.33\nsamples = 19\nvalue = [15, 4]\nclass = STAY", fillcolor="#eca36e"] ;
567 -> 568 ;
569 [label="HANDSET_PRICE <= 288.5\ngini = 0.15\nsamples = 12\nvalue = [11, 1]\nclass = STAY", fillcolor="#e78c4b"] ;
568 -> 569 ;
570 [label="gini = 0.0\nsamples = 10\nvalue = [10, 0]\nclass = STAY", fillcolor="#e58139"] ;
569 -> 570 ;
571 [label="AVERAGE_CALL_DURATION <= 9.5\ngini = 0.5\nsamples = 2\nvalue = [1, 1]\nclass = STAY", fillcolor="#ffffff"] ;
569 -> 571 ;
572 [label="gini = 0.0\nsamples = 1\nvalue = [1, 0]\nclass = STAY", fillcolor="#e58139"] ;
571 -> 572 ;
573 [label="gini = 0.0\nsamples = 1\nvalue = [0, 1]\nclass = LEAVE", fillcolor="#399de5"] ;
571 -> 573 ;
574 [label="INCOME <= 79976.5\ngini = 0.49\nsamples = 7\nvalue = [4, 3]\nclass = STAY", fillcolor="#f8e0ce"] ;
568 -> 574 ;
575 [label="OVERAGE <= 58.5\ngini = 0.38\nsamples = 4\nvalue = [1, 3]\nclass = LEAVE", fillcolor="#7bbeee"] ;
574 -> 575 ;
576 [label="gini = 0.0\nsamples = 3\nvalue = [0, 3]\nclass = LEAVE", fillcolor="#399de5"] ;
575 -> 576 ;
577 [label="gini = 0.0\nsamples = 1\nvalue = [1, 0]\nclass = STAY", fillcolor="#e58139"] ;
575 -> 577 ;
578 [label="gini = 0.0\nsamples = 3\nvalue = [3, 0]\nclass = STAY", fillcolor="#e58139"] ;
574 -> 578 ;
579 [label="HANDSET_PRICE <= 274.0\ngini = 0.48\nsamples = 5\nvalue = [2, 3]\nclass = LEAVE", fillcolor="#bddef6"] ;
567 -> 579 ;
580 [label="gini = 0.0\nsamples = 3\nvalue = [0, 3]\nclass = LEAVE", fillcolor="#399de5"] ;
579 -> 580 ;
581 [label="gini = 0.0\nsamples = 2\nvalue = [2, 0]\nclass = STAY", fillcolor="#e58139"] ;
579 -> 581 ;
582 [label="gini = 0.0\nsamples = 3\nvalue = [0, 3]\nclass = LEAVE", fillcolor="#399de5"] ;
566 -> 582 ;
583 [label="gini = 0.0\nsamples = 4\nvalue = [0, 4]\nclass = LEAVE", fillcolor="#399de5"] ;
565 -> 583 ;
584 [label="gini = 0.0\nsamples = 5\nvalue = [0, 5]\nclass = LEAVE", fillcolor="#399de5"] ;
564 -> 584 ;
585 [label="HANDSET_PRICE <= 246.5\ngini = 0.26\nsamples = 13\nvalue = [2, 11]\nclass = LEAVE", fillcolor="#5dafea"] ;
563 -> 585 ;
586 [label="gini = 0.0\nsamples = 1\nvalue = [1, 0]\nclass = STAY", fillcolor="#e58139"] ;
585 -> 586 ;
587 [label="INCOME <= 65981.0\ngini = 0.15\nsamples = 12\nvalue = [1, 11]\nclass = LEAVE", fillcolor="#4ba6e7"] ;
585 -> 587 ;
588 [label="AVERAGE_CALL_DURATION <= 9.0\ngini = 0.5\nsamples = 2\nvalue = [1, 1]\nclass = STAY", fillcolor="#ffffff"] ;
587 -> 588 ;
589 [label="gini = 0.0\nsamples = 1\nvalue = [0, 1]\nclass = LEAVE", fillcolor="#399de5"] ;
588 -> 589 ;
590 [label="gini = 0.0\nsamples = 1\nvalue = [1, 0]\nclass = STAY", fillcolor="#e58139"] ;
588 -> 590 ;
591 [label="gini = 0.0\nsamples = 10\nvalue = [0, 10]\nclass = LEAVE", fillcolor="#399de5"] ;
587 -> 591 ;
592 [label="HANDSET_PRICE <= 318.5\ngini = 0.49\nsamples = 45\nvalue = [26, 19]\nclass = STAY", fillcolor="#f8ddca"] ;
562 -> 592 ;
593 [label="INCOME <= 65167.0\ngini = 0.24\nsamples = 14\nvalue = [12, 2]\nclass = STAY", fillcolor="#e9965a"] ;
592 -> 593 ;
594 [label="gini = 0.0\nsamples = 1\nvalue = [0, 1]\nclass = LEAVE", fillcolor="#399de5"] ;
593 -> 594 ;
595 [label="OVERAGE <= 78.0\ngini = 0.14\nsamples = 13\nvalue = [12, 1]\nclass = STAY", fillcolor="#e78c49"] ;
593 -> 595 ;
596 [label="gini = 0.0\nsamples = 12\nvalue = [12, 0]\nclass = STAY", fillcolor="#e58139"] ;
595 -> 596 ;
597 [label="gini = 0.0\nsamples = 1\nvalue = [0, 1]\nclass = LEAVE", fillcolor="#399de5"] ;
595 -> 597 ;
598 [label="REPORTED_SATISFACTION_very_sat <= 0.5\ngini = 0.5\nsamples = 31\nvalue = [14, 17]\nclass = LEAVE", fillcolor="#dceefa"] ;
592 -> 598 ;
599 [label="INCOME <= 78616.0\ngini = 0.46\nsamples = 25\nvalue = [9, 16]\nclass = LEAVE", fillcolor="#a8d4f4"] ;
598 -> 599 ;
600 [label="HOUSE <= 476327.0\ngini = 0.5\nsamples = 15\nvalue = [8, 7]\nclass = STAY", fillcolor="#fcefe6"] ;
599 -> 600 ;
601 [label="INCOME <= 73126.5\ngini = 0.42\nsamples = 10\nvalue = [7, 3]\nclass = STAY", fillcolor="#f0b78e"] ;
600 -> 601 ;
602 [label="CONSIDERING_CHANGE_OF_PLAN_no <= 0.5\ngini = 0.5\nsamples = 6\nvalue = [3, 3]\nclass = STAY", fillcolor="#ffffff"] ;
601 -> 602 ;
603 [label="REPORTED_USAGE_LEVEL_very_little <= 0.5\ngini = 0.38\nsamples = 4\nvalue = [3, 1]\nclass = STAY", fillcolor="#eeab7b"] ;
602 -> 603 ;
604 [label="gini = 0.0\nsamples = 3\nvalue = [3, 0]\nclass = STAY", fillcolor="#e58139"] ;
603 -> 604 ;
605 [label="gini = 0.0\nsamples = 1\nvalue = [0, 1]\nclass = LEAVE", fillcolor="#399de5"] ;
603 -> 605 ;
606 [label="gini = 0.0\nsamples = 2\nvalue = [0, 2]\nclass = LEAVE", fillcolor="#399de5"] ;
602 -> 606 ;
607 [label="gini = 0.0\nsamples = 4\nvalue = [4, 0]\nclass = STAY", fillcolor="#e58139"] ;
601 -> 607 ;
608 [label="HOUSE <= 525005.5\ngini = 0.32\nsamples = 5\nvalue = [1, 4]\nclass = LEAVE", fillcolor="#6ab6ec"] ;
600 -> 608 ;
609 [label="gini = 0.0\nsamples = 4\nvalue = [0, 4]\nclass = LEAVE", fillcolor="#399de5"] ;
608 -> 609 ;
610 [label="gini = 0.0\nsamples = 1\nvalue = [1, 0]\nclass = STAY", fillcolor="#e58139"] ;
608 -> 610 ;
611 [label="HOUSE <= 472448.0\ngini = 0.18\nsamples = 10\nvalue = [1, 9]\nclass = LEAVE", fillcolor="#4fa8e8"] ;
599 -> 611 ;
612 [label="gini = 0.0\nsamples = 9\nvalue = [0, 9]\nclass = LEAVE", fillcolor="#399de5"] ;
611 -> 612 ;
613 [label="gini = 0.0\nsamples = 1\nvalue = [1, 0]\nclass = STAY", fillcolor="#e58139"] ;
611 -> 613 ;
614 [label="REPORTED_USAGE_LEVEL_very_little <= 0.5\ngini = 0.28\nsamples = 6\nvalue = [5, 1]\nclass = STAY", fillcolor="#ea9a61"] ;
598 -> 614 ;
615 [label="gini = 0.0\nsamples = 5\nvalue = [5, 0]\nclass = STAY", fillcolor="#e58139"] ;
614 -> 615 ;
616 [label="gini = 0.0\nsamples = 1\nvalue = [0, 1]\nclass = LEAVE", fillcolor="#399de5"] ;
614 -> 616 ;
617 [label="gini = 0.0\nsamples = 3\nvalue = [3, 0]\nclass = STAY", fillcolor="#e58139"] ;
561 -> 617 ;
618 [label="REPORTED_USAGE_LEVEL_high <= 0.5\ngini = 0.36\nsamples = 13\nvalue = [3, 10]\nclass = LEAVE", fillcolor="#74baed"] ;
560 -> 618 ;
619 [label="REPORTED_SATISFACTION_very_sat <= 0.5\ngini = 0.28\nsamples = 12\nvalue = [2, 10]\nclass = LEAVE", fillcolor="#61b1ea"] ;
618 -> 619 ;
620 [label="OVERAGE <= 19.0\ngini = 0.18\nsamples = 10\nvalue = [1, 9]\nclass = LEAVE", fillcolor="#4fa8e8"] ;
619 -> 620 ;
621 [label="HOUSE <= 378562.5\ngini = 0.5\nsamples = 2\nvalue = [1, 1]\nclass = STAY", fillcolor="#ffffff"] ;
620 -> 621 ;
622 [label="gini = 0.0\nsamples = 1\nvalue = [0, 1]\nclass = LEAVE", fillcolor="#399de5"] ;
621 -> 622 ;
623 [label="gini = 0.0\nsamples = 1\nvalue = [1, 0]\nclass = STAY", fillcolor="#e58139"] ;
621 -> 623 ;
624 [label="gini = 0.0\nsamples = 8\nvalue = [0, 8]\nclass = LEAVE", fillcolor="#399de5"] ;
620 -> 624 ;
625 [label="INCOME <= 81848.0\ngini = 0.5\nsamples = 2\nvalue = [1, 1]\nclass = STAY", fillcolor="#ffffff"] ;
619 -> 625 ;
626 [label="gini = 0.0\nsamples = 1\nvalue = [1, 0]\nclass = STAY", fillcolor="#e58139"] ;
625 -> 626 ;
627 [label="gini = 0.0\nsamples = 1\nvalue = [0, 1]\nclass = LEAVE", fillcolor="#399de5"] ;
625 -> 627 ;
628 [label="gini = 0.0\nsamples = 1\nvalue = [1, 0]\nclass = STAY", fillcolor="#e58139"] ;
618 -> 628 ;
629 [label="INCOME <= 71876.5\ngini = 0.24\nsamples = 7\nvalue = [1, 6]\nclass = LEAVE", fillcolor="#5aade9"] ;
559 -> 629 ;
630 [label="gini = 0.0\nsamples = 6\nvalue = [0, 6]\nclass = LEAVE", fillcolor="#399de5"] ;
629 -> 630 ;
631 [label="gini = 0.0\nsamples = 1\nvalue = [1, 0]\nclass = STAY", fillcolor="#e58139"] ;
629 -> 631 ;
632 [label="gini = 0.0\nsamples = 4\nvalue = [4, 0]\nclass = STAY", fillcolor="#e58139"] ;
558 -> 632 ;
633 [label="gini = 0.0\nsamples = 4\nvalue = [4, 0]\nclass = STAY", fillcolor="#e58139"] ;
557 -> 633 ;
634 [label="HOUSE <= 192969.0\ngini = 0.41\nsamples = 87\nvalue = [25, 62]\nclass = LEAVE", fillcolor="#89c5ef"] ;
554 -> 634 ;
635 [label="gini = 0.0\nsamples = 4\nvalue = [4, 0]\nclass = STAY", fillcolor="#e58139"] ;
634 -> 635 ;
636 [label="INCOME <= 83681.0\ngini = 0.38\nsamples = 83\nvalue = [21, 62]\nclass = LEAVE", fillcolor="#7cbeee"] ;
634 -> 636 ;
637 [label="INCOME <= 80744.0\ngini = 0.47\nsamples = 46\nvalue = [17, 29]\nclass = LEAVE", fillcolor="#add6f4"] ;
636 -> 637 ;
638 [label="REPORTED_USAGE_LEVEL_little <= 0.5\ngini = 0.43\nsamples = 42\nvalue = [13, 29]\nclass = LEAVE", fillcolor="#92c9f1"] ;
637 -> 638 ;
639 [label="INCOME <= 62068.5\ngini = 0.31\nsamples = 26\nvalue = [5, 21]\nclass = LEAVE", fillcolor="#68b4eb"] ;
638 -> 639 ;
640 [label="gini = 0.0\nsamples = 1\nvalue = [1, 0]\nclass = STAY", fillcolor="#e58139"] ;
639 -> 640 ;
641 [label="INCOME <= 75626.0\ngini = 0.27\nsamples = 25\nvalue = [4, 21]\nclass = LEAVE", fillcolor="#5fb0ea"] ;
639 -> 641 ;
642 [label="HOUSE <= 517128.0\ngini = 0.11\nsamples = 17\nvalue = [1, 16]\nclass = LEAVE", fillcolor="#45a3e7"] ;
641 -> 642 ;
643 [label="gini = 0.0\nsamples = 14\nvalue = [0, 14]\nclass = LEAVE", fillcolor="#399de5"] ;
642 -> 643 ;
644 [label="AVERAGE_CALL_DURATION <= 14.5\ngini = 0.44\nsamples = 3\nvalue = [1, 2]\nclass = LEAVE", fillcolor="#9ccef2"] ;
642 -> 644 ;
645 [label="gini = 0.0\nsamples = 1\nvalue = [1, 0]\nclass = STAY", fillcolor="#e58139"] ;
644 -> 645 ;
646 [label="gini = 0.0\nsamples = 2\nvalue = [0, 2]\nclass = LEAVE", fillcolor="#399de5"] ;
644 -> 646 ;
647 [label="INCOME <= 77315.5\ngini = 0.47\nsamples = 8\nvalue = [3, 5]\nclass = LEAVE", fillcolor="#b0d8f5"] ;
641 -> 647 ;
648 [label="HOUSE <= 560573.5\ngini = 0.38\nsamples = 4\nvalue = [3, 1]\nclass = STAY", fillcolor="#eeab7b"] ;
647 -> 648 ;
649 [label="gini = 0.0\nsamples = 3\nvalue = [3, 0]\nclass = STAY", fillcolor="#e58139"] ;
648 -> 649 ;
650 [label="gini = 0.0\nsamples = 1\nvalue = [0, 1]\nclass = LEAVE", fillcolor="#399de5"] ;
648 -> 650 ;
651 [label="gini = 0.0\nsamples = 4\nvalue = [0, 4]\nclass = LEAVE", fillcolor="#399de5"] ;
647 -> 651 ;
652 [label="HANDSET_PRICE <= 294.0\ngini = 0.5\nsamples = 16\nvalue = [8, 8]\nclass = STAY", fillcolor="#ffffff"] ;
638 -> 652 ;
653 [label="HANDSET_PRICE <= 268.0\ngini = 0.32\nsamples = 5\nvalue = [4, 1]\nclass = STAY", fillcolor="#eca06a"] ;
652 -> 653 ;
654 [label="gini = 0.0\nsamples = 1\nvalue = [0, 1]\nclass = LEAVE", fillcolor="#399de5"] ;
653 -> 654 ;
655 [label="gini = 0.0\nsamples = 4\nvalue = [4, 0]\nclass = STAY", fillcolor="#e58139"] ;
653 -> 655 ;
656 [label="AVERAGE_CALL_DURATION <= 13.5\ngini = 0.46\nsamples = 11\nvalue = [4, 7]\nclass = LEAVE", fillcolor="#aad5f4"] ;
652 -> 656 ;
657 [label="HANDSET_PRICE <= 316.5\ngini = 0.48\nsamples = 5\nvalue = [3, 2]\nclass = STAY", fillcolor="#f6d5bd"] ;
656 -> 657 ;
658 [label="gini = 0.0\nsamples = 2\nvalue = [0, 2]\nclass = LEAVE", fillcolor="#399de5"] ;
657 -> 658 ;
659 [label="gini = 0.0\nsamples = 3\nvalue = [3, 0]\nclass = STAY", fillcolor="#e58139"] ;
657 -> 659 ;
660 [label="REPORTED_SATISFACTION_sat <= 0.5\ngini = 0.28\nsamples = 6\nvalue = [1, 5]\nclass = LEAVE", fillcolor="#61b1ea"] ;
656 -> 660 ;
661 [label="gini = 0.0\nsamples = 5\nvalue = [0, 5]\nclass = LEAVE", fillcolor="#399de5"] ;
660 -> 661 ;
662 [label="gini = 0.0\nsamples = 1\nvalue = [1, 0]\nclass = STAY", fillcolor="#e58139"] ;
660 -> 662 ;
663 [label="gini = 0.0\nsamples = 4\nvalue = [4, 0]\nclass = STAY", fillcolor="#e58139"] ;
637 -> 663 ;
664 [label="REPORTED_USAGE_LEVEL_very_little <= 0.5\ngini = 0.19\nsamples = 37\nvalue = [4, 33]\nclass = LEAVE", fillcolor="#51a9e8"] ;
636 -> 664 ;
665 [label="INCOME <= 114082.5\ngini = 0.07\nsamples = 29\nvalue = [1, 28]\nclass = LEAVE", fillcolor="#40a0e6"] ;
664 -> 665 ;
666 [label="gini = 0.0\nsamples = 27\nvalue = [0, 27]\nclass = LEAVE", fillcolor="#399de5"] ;
665 -> 666 ;
667 [label="CONSIDERING_CHANGE_OF_PLAN_considering <= 0.5\ngini = 0.5\nsamples = 2\nvalue = [1, 1]\nclass = STAY", fillcolor="#ffffff"] ;
665 -> 667 ;
668 [label="gini = 0.0\nsamples = 1\nvalue = [1, 0]\nclass = STAY", fillcolor="#e58139"] ;
667 -> 668 ;
669 [label="gini = 0.0\nsamples = 1\nvalue = [0, 1]\nclass = LEAVE", fillcolor="#399de5"] ;
667 -> 669 ;
670 [label="OVERAGE <= 49.5\ngini = 0.47\nsamples = 8\nvalue = [3, 5]\nclass = LEAVE", fillcolor="#b0d8f5"] ;
664 -> 670 ;
671 [label="REPORTED_SATISFACTION_very_sat <= 0.5\ngini = 0.38\nsamples = 4\nvalue = [3, 1]\nclass = STAY", fillcolor="#eeab7b"] ;
670 -> 671 ;
672 [label="gini = 0.0\nsamples = 3\nvalue = [3, 0]\nclass = STAY", fillcolor="#e58139"] ;
671 -> 672 ;
673 [label="gini = 0.0\nsamples = 1\nvalue = [0, 1]\nclass = LEAVE", fillcolor="#399de5"] ;
671 -> 673 ;
674 [label="gini = 0.0\nsamples = 4\nvalue = [0, 4]\nclass = LEAVE", fillcolor="#399de5"] ;
670 -> 674 ;
675 [label="REPORTED_USAGE_LEVEL_very_high <= 0.5\ngini = 0.23\nsamples = 15\nvalue = [2, 13]\nclass = LEAVE", fillcolor="#57ace9"] ;
497 -> 675 ;
676 [label="gini = 0.0\nsamples = 10\nvalue = [0, 10]\nclass = LEAVE", fillcolor="#399de5"] ;
675 -> 676 ;
677 [label="HANDSET_PRICE <= 199.0\ngini = 0.48\nsamples = 5\nvalue = [2, 3]\nclass = LEAVE", fillcolor="#bddef6"] ;
675 -> 677 ;
678 [label="gini = 0.0\nsamples = 3\nvalue = [0, 3]\nclass = LEAVE", fillcolor="#399de5"] ;
677 -> 678 ;
679 [label="gini = 0.0\nsamples = 2\nvalue = [2, 0]\nclass = STAY", fillcolor="#e58139"] ;
677 -> 679 ;
680 [label="HANDSET_PRICE <= 361.5\ngini = 0.5\nsamples = 853\nvalue = [445, 408]\nclass = STAY", fillcolor="#fdf5ef"] ;
480 -> 680 ;
681 [label="REPORTED_SATISFACTION_sat <= 0.5\ngini = 0.37\nsamples = 49\nvalue = [37, 12]\nclass = STAY", fillcolor="#edaa79"] ;
680 -> 681 ;
682 [label="HOUSE <= 552859.5\ngini = 0.33\nsamples = 47\nvalue = [37, 10]\nclass = STAY", fillcolor="#eca36f"] ;
681 -> 682 ;
683 [label="OVER_15MINS_CALLS_PER_MONTH <= 15.5\ngini = 0.29\nsamples = 45\nvalue = [37, 8]\nclass = STAY", fillcolor="#eb9c64"] ;
682 -> 683 ;
684 [label="HOUSE <= 221087.5\ngini = 0.27\nsamples = 44\nvalue = [37, 7]\nclass = STAY", fillcolor="#ea995e"] ;
683 -> 684 ;
685 [label="HOUSE <= 184774.0\ngini = 0.46\nsamples = 11\nvalue = [7, 4]\nclass = STAY", fillcolor="#f4c9aa"] ;
684 -> 685 ;
686 [label="gini = 0.0\nsamples = 5\nvalue = [5, 0]\nclass = STAY", fillcolor="#e58139"] ;
685 -> 686 ;
687 [label="COLLEGE <= 0.5\ngini = 0.44\nsamples = 6\nvalue = [2, 4]\nclass = LEAVE", fillcolor="#9ccef2"] ;
685 -> 687 ;
688 [label="CONSIDERING_CHANGE_OF_PLAN_considering <= 0.5\ngini = 0.44\nsamples = 3\nvalue = [2, 1]\nclass = STAY", fillcolor="#f2c09c"] ;
687 -> 688 ;
689 [label="gini = 0.0\nsamples = 2\nvalue = [2, 0]\nclass = STAY", fillcolor="#e58139"] ;
688 -> 689 ;
690 [label="gini = 0.0\nsamples = 1\nvalue = [0, 1]\nclass = LEAVE", fillcolor="#399de5"] ;
688 -> 690 ;
691 [label="gini = 0.0\nsamples = 3\nvalue = [0, 3]\nclass = LEAVE", fillcolor="#399de5"] ;
687 -> 691 ;
692 [label="HANDSET_PRICE <= 351.5\ngini = 0.17\nsamples = 33\nvalue = [30, 3]\nclass = STAY", fillcolor="#e88e4d"] ;
684 -> 692 ;
693 [label="REPORTED_USAGE_LEVEL_very_high <= 0.5\ngini = 0.44\nsamples = 6\nvalue = [4, 2]\nclass = STAY", fillcolor="#f2c09c"] ;
692 -> 693 ;
694 [label="gini = 0.0\nsamples = 4\nvalue = [4, 0]\nclass = STAY", fillcolor="#e58139"] ;
693 -> 694 ;
695 [label="gini = 0.0\nsamples = 2\nvalue = [0, 2]\nclass = LEAVE", fillcolor="#399de5"] ;
693 -> 695 ;
696 [label="REPORTED_USAGE_LEVEL_high <= 0.5\ngini = 0.07\nsamples = 27\nvalue = [26, 1]\nclass = STAY", fillcolor="#e68641"] ;
692 -> 696 ;
697 [label="gini = 0.0\nsamples = 24\nvalue = [24, 0]\nclass = STAY", fillcolor="#e58139"] ;
696 -> 697 ;
698 [label="HOUSE <= 316874.0\ngini = 0.44\nsamples = 3\nvalue = [2, 1]\nclass = STAY", fillcolor="#f2c09c"] ;
696 -> 698 ;
699 [label="gini = 0.0\nsamples = 2\nvalue = [2, 0]\nclass = STAY", fillcolor="#e58139"] ;
698 -> 699 ;
700 [label="gini = 0.0\nsamples = 1\nvalue = [0, 1]\nclass = LEAVE", fillcolor="#399de5"] ;
698 -> 700 ;
701 [label="gini = 0.0\nsamples = 1\nvalue = [0, 1]\nclass = LEAVE", fillcolor="#399de5"] ;
683 -> 701 ;
702 [label="gini = 0.0\nsamples = 2\nvalue = [0, 2]\nclass = LEAVE", fillcolor="#399de5"] ;
682 -> 702 ;
703 [label="gini = 0.0\nsamples = 2\nvalue = [0, 2]\nclass = LEAVE", fillcolor="#399de5"] ;
681 -> 703 ;
704 [label="HANDSET_PRICE <= 571.5\ngini = 0.5\nsamples = 804\nvalue = [408, 396]\nclass = STAY", fillcolor="#fefbf9"] ;
680 -> 704 ;
705 [label="HOUSE <= 249450.5\ngini = 0.5\nsamples = 359\nvalue = [163, 196]\nclass = LEAVE", fillcolor="#deeefb"] ;
704 -> 705 ;
706 [label="HANDSET_PRICE <= 370.5\ngini = 0.49\nsamples = 121\nvalue = [68, 53]\nclass = STAY", fillcolor="#f9e3d3"] ;
705 -> 706 ;
707 [label="REPORTED_SATISFACTION_unsat <= 0.5\ngini = 0.17\nsamples = 11\nvalue = [1, 10]\nclass = LEAVE", fillcolor="#4da7e8"] ;
706 -> 707 ;
708 [label="gini = 0.0\nsamples = 9\nvalue = [0, 9]\nclass = LEAVE", fillcolor="#399de5"] ;
707 -> 708 ;
709 [label="OVER_15MINS_CALLS_PER_MONTH <= 2.5\ngini = 0.5\nsamples = 2\nvalue = [1, 1]\nclass = STAY", fillcolor="#ffffff"] ;
707 -> 709 ;
710 [label="gini = 0.0\nsamples = 1\nvalue = [0, 1]\nclass = LEAVE", fillcolor="#399de5"] ;
709 -> 710 ;
711 [label="gini = 0.0\nsamples = 1\nvalue = [1, 0]\nclass = STAY", fillcolor="#e58139"] ;
709 -> 711 ;
712 [label="REPORTED_SATISFACTION_very_unsat <= 0.5\ngini = 0.48\nsamples = 110\nvalue = [67, 43]\nclass = STAY", fillcolor="#f6d2b8"] ;
706 -> 712 ;
713 [label="OVER_15MINS_CALLS_PER_MONTH <= 4.5\ngini = 0.5\nsamples = 69\nvalue = [36, 33]\nclass = STAY", fillcolor="#fdf5ef"] ;
712 -> 713 ;
714 [label="COLLEGE <= 0.5\ngini = 0.5\nsamples = 53\nvalue = [24, 29]\nclass = LEAVE", fillcolor="#ddeefb"] ;
713 -> 714 ;
715 [label="HOUSE <= 239766.5\ngini = 0.49\nsamples = 29\nvalue = [17, 12]\nclass = STAY", fillcolor="#f7dac5"] ;
714 -> 715 ;
716 [label="HANDSET_PRICE <= 561.0\ngini = 0.44\nsamples = 24\nvalue = [16, 8]\nclass = STAY", fillcolor="#f2c09c"] ;
715 -> 716 ;
717 [label="HANDSET_PRICE <= 457.0\ngini = 0.4\nsamples = 22\nvalue = [16, 6]\nclass = STAY", fillcolor="#efb083"] ;
716 -> 717 ;
718 [label="AVERAGE_CALL_DURATION <= 13.5\ngini = 0.47\nsamples = 16\nvalue = [10, 6]\nclass = STAY", fillcolor="#f5cdb0"] ;
717 -> 718 ;
719 [label="INCOME <= 139137.5\ngini = 0.5\nsamples = 12\nvalue = [6, 6]\nclass = STAY", fillcolor="#ffffff"] ;
718 -> 719 ;
720 [label="HANDSET_PRICE <= 430.0\ngini = 0.48\nsamples = 10\nvalue = [6, 4]\nclass = STAY", fillcolor="#f6d5bd"] ;
719 -> 720 ;
721 [label="HOUSE <= 225211.0\ngini = 0.38\nsamples = 8\nvalue = [6, 2]\nclass = STAY", fillcolor="#eeab7b"] ;
720 -> 721 ;
722 [label="REPORTED_USAGE_LEVEL_very_little <= 0.5\ngini = 0.24\nsamples = 7\nvalue = [6, 1]\nclass = STAY", fillcolor="#e9965a"] ;
721 -> 722 ;
723 [label="gini = 0.0\nsamples = 5\nvalue = [5, 0]\nclass = STAY", fillcolor="#e58139"] ;
722 -> 723 ;
724 [label="AVERAGE_CALL_DURATION <= 7.5\ngini = 0.5\nsamples = 2\nvalue = [1, 1]\nclass = STAY", fillcolor="#ffffff"] ;
722 -> 724 ;
725 [label="gini = 0.0\nsamples = 1\nvalue = [1, 0]\nclass = STAY", fillcolor="#e58139"] ;
724 -> 725 ;
726 [label="gini = 0.0\nsamples = 1\nvalue = [0, 1]\nclass = LEAVE", fillcolor="#399de5"] ;
724 -> 726 ;
727 [label="gini = 0.0\nsamples = 1\nvalue = [0, 1]\nclass = LEAVE", fillcolor="#399de5"] ;
721 -> 727 ;
728 [label="gini = 0.0\nsamples = 2\nvalue = [0, 2]\nclass = LEAVE", fillcolor="#399de5"] ;
720 -> 728 ;
729 [label="gini = 0.0\nsamples = 2\nvalue = [0, 2]\nclass = LEAVE", fillcolor="#399de5"] ;
719 -> 729 ;
730 [label="gini = 0.0\nsamples = 4\nvalue = [4, 0]\nclass = STAY", fillcolor="#e58139"] ;
718 -> 730 ;
731 [label="gini = 0.0\nsamples = 6\nvalue = [6, 0]\nclass = STAY", fillcolor="#e58139"] ;
717 -> 731 ;
732 [label="gini = 0.0\nsamples = 2\nvalue = [0, 2]\nclass = LEAVE", fillcolor="#399de5"] ;
716 -> 732 ;
733 [label="HOUSE <= 247892.0\ngini = 0.32\nsamples = 5\nvalue = [1, 4]\nclass = LEAVE", fillcolor="#6ab6ec"] ;
715 -> 733 ;
734 [label="gini = 0.0\nsamples = 4\nvalue = [0, 4]\nclass = LEAVE", fillcolor="#399de5"] ;
733 -> 734 ;
735 [label="gini = 0.0\nsamples = 1\nvalue = [1, 0]\nclass = STAY", fillcolor="#e58139"] ;
733 -> 735 ;
736 [label="REPORTED_USAGE_LEVEL_little <= 0.5\ngini = 0.41\nsamples = 24\nvalue = [7, 17]\nclass = LEAVE", fillcolor="#8bc5f0"] ;
714 -> 736 ;
737 [label="REPORTED_SATISFACTION_unsat <= 0.5\ngini = 0.48\nsamples = 18\nvalue = [7, 11]\nclass = LEAVE", fillcolor="#b7dbf6"] ;
736 -> 737 ;
738 [label="AVERAGE_CALL_DURATION <= 11.5\ngini = 0.5\nsamples = 12\nvalue = [6, 6]\nclass = STAY", fillcolor="#ffffff"] ;
737 -> 738 ;
739 [label="OVERAGE <= 55.0\ngini = 0.32\nsamples = 5\nvalue = [4, 1]\nclass = STAY", fillcolor="#eca06a"] ;
738 -> 739 ;
740 [label="gini = 0.0\nsamples = 4\nvalue = [4, 0]\nclass = STAY", fillcolor="#e58139"] ;
739 -> 740 ;
741 [label="gini = 0.0\nsamples = 1\nvalue = [0, 1]\nclass = LEAVE", fillcolor="#399de5"] ;
739 -> 741 ;
742 [label="INCOME <= 120164.0\ngini = 0.41\nsamples = 7\nvalue = [2, 5]\nclass = LEAVE", fillcolor="#88c4ef"] ;
738 -> 742 ;
743 [label="gini = 0.0\nsamples = 4\nvalue = [0, 4]\nclass = LEAVE", fillcolor="#399de5"] ;
742 -> 743 ;
744 [label="INCOME <= 140295.0\ngini = 0.44\nsamples = 3\nvalue = [2, 1]\nclass = STAY", fillcolor="#f2c09c"] ;
742 -> 744 ;
745 [label="gini = 0.0\nsamples = 2\nvalue = [2, 0]\nclass = STAY", fillcolor="#e58139"] ;
744 -> 745 ;
746 [label="gini = 0.0\nsamples = 1\nvalue = [0, 1]\nclass = LEAVE", fillcolor="#399de5"] ;
744 -> 746 ;
747 [label="HOUSE <= 242657.0\ngini = 0.28\nsamples = 6\nvalue = [1, 5]\nclass = LEAVE", fillcolor="#61b1ea"] ;
737 -> 747 ;
748 [label="gini = 0.0\nsamples = 5\nvalue = [0, 5]\nclass = LEAVE", fillcolor="#399de5"] ;
747 -> 748 ;
749 [label="gini = 0.0\nsamples = 1\nvalue = [1, 0]\nclass = STAY", fillcolor="#e58139"] ;
747 -> 749 ;
750 [label="gini = 0.0\nsamples = 6\nvalue = [0, 6]\nclass = LEAVE", fillcolor="#399de5"] ;
736 -> 750 ;
751 [label="HANDSET_PRICE <= 550.5\ngini = 0.38\nsamples = 16\nvalue = [12, 4]\nclass = STAY", fillcolor="#eeab7b"] ;
713 -> 751 ;
752 [label="OVER_15MINS_CALLS_PER_MONTH <= 14.5\ngini = 0.15\nsamples = 12\nvalue = [11, 1]\nclass = STAY", fillcolor="#e78c4b"] ;
751 -> 752 ;
753 [label="gini = 0.0\nsamples = 10\nvalue = [10, 0]\nclass = STAY", fillcolor="#e58139"] ;
752 -> 753 ;
754 [label="HOUSE <= 204666.0\ngini = 0.5\nsamples = 2\nvalue = [1, 1]\nclass = STAY", fillcolor="#ffffff"] ;
752 -> 754 ;
755 [label="gini = 0.0\nsamples = 1\nvalue = [0, 1]\nclass = LEAVE", fillcolor="#399de5"] ;
754 -> 755 ;
756 [label="gini = 0.0\nsamples = 1\nvalue = [1, 0]\nclass = STAY", fillcolor="#e58139"] ;
754 -> 756 ;
757 [label="REPORTED_USAGE_LEVEL_very_little <= 0.5\ngini = 0.38\nsamples = 4\nvalue = [1, 3]\nclass = LEAVE", fillcolor="#7bbeee"] ;
751 -> 757 ;
758 [label="gini = 0.0\nsamples = 3\nvalue = [0, 3]\nclass = LEAVE", fillcolor="#399de5"] ;
757 -> 758 ;
759 [label="gini = 0.0\nsamples = 1\nvalue = [1, 0]\nclass = STAY", fillcolor="#e58139"] ;
757 -> 759 ;
760 [label="OVER_15MINS_CALLS_PER_MONTH <= 12.5\ngini = 0.37\nsamples = 41\nvalue = [31, 10]\nclass = STAY", fillcolor="#edaa79"] ;
712 -> 760 ;
761 [label="INCOME <= 121308.0\ngini = 0.33\nsamples = 39\nvalue = [31, 8]\nclass = STAY", fillcolor="#eca26c"] ;
760 -> 761 ;
762 [label="OVER_15MINS_CALLS_PER_MONTH <= 0.5\ngini = 0.1\nsamples = 19\nvalue = [18, 1]\nclass = STAY", fillcolor="#e68844"] ;
761 -> 762 ;
763 [label="HOUSE <= 194170.0\ngini = 0.32\nsamples = 5\nvalue = [4, 1]\nclass = STAY", fillcolor="#eca06a"] ;
762 -> 763 ;
764 [label="gini = 0.0\nsamples = 4\nvalue = [4, 0]\nclass = STAY", fillcolor="#e58139"] ;
763 -> 764 ;
765 [label="gini = 0.0\nsamples = 1\nvalue = [0, 1]\nclass = LEAVE", fillcolor="#399de5"] ;
763 -> 765 ;
766 [label="gini = 0.0\nsamples = 14\nvalue = [14, 0]\nclass = STAY", fillcolor="#e58139"] ;
762 -> 766 ;
767 [label="INCOME <= 125740.0\ngini = 0.45\nsamples = 20\nvalue = [13, 7]\nclass = STAY", fillcolor="#f3c5a4"] ;
761 -> 767 ;
768 [label="gini = 0.0\nsamples = 2\nvalue = [0, 2]\nclass = LEAVE", fillcolor="#399de5"] ;
767 -> 768 ;
769 [label="OVER_15MINS_CALLS_PER_MONTH <= 2.0\ngini = 0.4\nsamples = 18\nvalue = [13, 5]\nclass = STAY", fillcolor="#efb185"] ;
767 -> 769 ;
770 [label="gini = 0.0\nsamples = 9\nvalue = [9, 0]\nclass = STAY", fillcolor="#e58139"] ;
769 -> 770 ;
771 [label="HOUSE <= 210150.0\ngini = 0.49\nsamples = 9\nvalue = [4, 5]\nclass = LEAVE", fillcolor="#d7ebfa"] ;
769 -> 771 ;
772 [label="gini = 0.0\nsamples = 4\nvalue = [0, 4]\nclass = LEAVE", fillcolor="#399de5"] ;
771 -> 772 ;
773 [label="REPORTED_USAGE_LEVEL_very_little <= 0.5\ngini = 0.32\nsamples = 5\nvalue = [4, 1]\nclass = STAY", fillcolor="#eca06a"] ;
771 -> 773 ;
774 [label="gini = 0.0\nsamples = 4\nvalue = [4, 0]\nclass = STAY", fillcolor="#e58139"] ;
773 -> 774 ;
775 [label="gini = 0.0\nsamples = 1\nvalue = [0, 1]\nclass = LEAVE", fillcolor="#399de5"] ;
773 -> 775 ;
776 [label="gini = 0.0\nsamples = 2\nvalue = [0, 2]\nclass = LEAVE", fillcolor="#399de5"] ;
760 -> 776 ;
777 [label="OVER_15MINS_CALLS_PER_MONTH <= 21.5\ngini = 0.48\nsamples = 238\nvalue = [95, 143]\nclass = LEAVE", fillcolor="#bddef6"] ;
705 -> 777 ;
778 [label="HOUSE <= 582931.5\ngini = 0.47\nsamples = 230\nvalue = [88, 142]\nclass = LEAVE", fillcolor="#b4daf5"] ;
777 -> 778 ;
779 [label="HOUSE <= 553265.5\ngini = 0.46\nsamples = 220\nvalue = [80, 140]\nclass = LEAVE", fillcolor="#aad5f4"] ;
778 -> 779 ;
780 [label="HOUSE <= 259551.0\ngini = 0.48\nsamples = 202\nvalue = [79, 123]\nclass = LEAVE", fillcolor="#b8dcf6"] ;
779 -> 780 ;
781 [label="HANDSET_PRICE <= 569.5\ngini = 0.21\nsamples = 17\nvalue = [2, 15]\nclass = LEAVE", fillcolor="#53aae8"] ;
780 -> 781 ;
782 [label="INCOME <= 145364.0\ngini = 0.12\nsamples = 16\nvalue = [1, 15]\nclass = LEAVE", fillcolor="#46a4e7"] ;
781 -> 782 ;
783 [label="gini = 0.0\nsamples = 13\nvalue = [0, 13]\nclass = LEAVE", fillcolor="#399de5"] ;
782 -> 783 ;
784 [label="HANDSET_PRICE <= 491.0\ngini = 0.44\nsamples = 3\nvalue = [1, 2]\nclass = LEAVE", fillcolor="#9ccef2"] ;
782 -> 784 ;
785 [label="gini = 0.0\nsamples = 1\nvalue = [1, 0]\nclass = STAY", fillcolor="#e58139"] ;
784 -> 785 ;
786 [label="gini = 0.0\nsamples = 2\nvalue = [0, 2]\nclass = LEAVE", fillcolor="#399de5"] ;
784 -> 786 ;
787 [label="gini = 0.0\nsamples = 1\nvalue = [1, 0]\nclass = STAY", fillcolor="#e58139"] ;
781 -> 787 ;
788 [label="OVERAGE <= 79.5\ngini = 0.49\nsamples = 185\nvalue = [77, 108]\nclass = LEAVE", fillcolor="#c6e3f8"] ;
780 -> 788 ;
789 [label="HANDSET_PRICE <= 558.0\ngini = 0.48\nsamples = 180\nvalue = [72, 108]\nclass = LEAVE", fillcolor="#bddef6"] ;
788 -> 789 ;
790 [label="REPORTED_USAGE_LEVEL_very_little <= 0.5\ngini = 0.49\nsamples = 169\nvalue = [71, 98]\nclass = LEAVE", fillcolor="#c8e4f8"] ;
789 -> 790 ;
791 [label="HANDSET_PRICE <= 425.0\ngini = 0.5\nsamples = 127\nvalue = [59, 68]\nclass = LEAVE", fillcolor="#e5f2fc"] ;
790 -> 791 ;
792 [label="INCOME <= 78269.5\ngini = 0.46\nsamples = 64\nvalue = [23, 41]\nclass = LEAVE", fillcolor="#a8d4f4"] ;
791 -> 792 ;
793 [label="INCOME <= 71093.5\ngini = 0.5\nsamples = 22\nvalue = [12, 10]\nclass = STAY", fillcolor="#fbeade"] ;
792 -> 793 ;
794 [label="CONSIDERING_CHANGE_OF_PLAN_considering <= 0.5\ngini = 0.4\nsamples = 11\nvalue = [3, 8]\nclass = LEAVE", fillcolor="#83c2ef"] ;
793 -> 794 ;
795 [label="AVERAGE_CALL_DURATION <= 12.0\ngini = 0.48\nsamples = 5\nvalue = [3, 2]\nclass = STAY", fillcolor="#f6d5bd"] ;
794 -> 795 ;
796 [label="gini = 0.0\nsamples = 3\nvalue = [3, 0]\nclass = STAY", fillcolor="#e58139"] ;
795 -> 796 ;
797 [label="gini = 0.0\nsamples = 2\nvalue = [0, 2]\nclass = LEAVE", fillcolor="#399de5"] ;
795 -> 797 ;
798 [label="gini = 0.0\nsamples = 6\nvalue = [0, 6]\nclass = LEAVE", fillcolor="#399de5"] ;
794 -> 798 ;
799 [label="HANDSET_PRICE <= 370.0\ngini = 0.3\nsamples = 11\nvalue = [9, 2]\nclass = STAY", fillcolor="#eb9d65"] ;
793 -> 799 ;
800 [label="gini = 0.0\nsamples = 1\nvalue = [0, 1]\nclass = LEAVE", fillcolor="#399de5"] ;
799 -> 800 ;
801 [label="HANDSET_PRICE <= 386.0\ngini = 0.18\nsamples = 10\nvalue = [9, 1]\nclass = STAY", fillcolor="#e88f4f"] ;
799 -> 801 ;
802 [label="gini = 0.0\nsamples = 8\nvalue = [8, 0]\nclass = STAY", fillcolor="#e58139"] ;
801 -> 802 ;
803 [label="HANDSET_PRICE <= 392.0\ngini = 0.5\nsamples = 2\nvalue = [1, 1]\nclass = STAY", fillcolor="#ffffff"] ;
801 -> 803 ;
804 [label="gini = 0.0\nsamples = 1\nvalue = [0, 1]\nclass = LEAVE", fillcolor="#399de5"] ;
803 -> 804 ;
805 [label="gini = 0.0\nsamples = 1\nvalue = [1, 0]\nclass = STAY", fillcolor="#e58139"] ;
803 -> 805 ;
806 [label="HOUSE <= 281849.5\ngini = 0.39\nsamples = 42\nvalue = [11, 31]\nclass = LEAVE", fillcolor="#7fc0ee"] ;
792 -> 806 ;
807 [label="OVERAGE <= 68.0\ngini = 0.32\nsamples = 5\nvalue = [4, 1]\nclass = STAY", fillcolor="#eca06a"] ;
806 -> 807 ;
808 [label="gini = 0.0\nsamples = 4\nvalue = [4, 0]\nclass = STAY", fillcolor="#e58139"] ;
807 -> 808 ;
809 [label="gini = 0.0\nsamples = 1\nvalue = [0, 1]\nclass = LEAVE", fillcolor="#399de5"] ;
807 -> 809 ;
810 [label="OVERAGE <= 72.0\ngini = 0.31\nsamples = 37\nvalue = [7, 30]\nclass = LEAVE", fillcolor="#67b4eb"] ;
806 -> 810 ;
811 [label="REPORTED_USAGE_LEVEL_very_high <= 0.5\ngini = 0.28\nsamples = 36\nvalue = [6, 30]\nclass = LEAVE", fillcolor="#61b1ea"] ;
810 -> 811 ;
812 [label="AVERAGE_CALL_DURATION <= 14.5\ngini = 0.4\nsamples = 22\nvalue = [6, 16]\nclass = LEAVE", fillcolor="#83c2ef"] ;
811 -> 812 ;
813 [label="INCOME <= 136166.5\ngini = 0.32\nsamples = 20\nvalue = [4, 16]\nclass = LEAVE", fillcolor="#6ab6ec"] ;
812 -> 813 ;
814 [label="HANDSET_PRICE <= 388.0\ngini = 0.27\nsamples = 19\nvalue = [3, 16]\nclass = LEAVE", fillcolor="#5eafea"] ;
813 -> 814 ;
815 [label="gini = 0.0\nsamples = 9\nvalue = [0, 9]\nclass = LEAVE", fillcolor="#399de5"] ;
814 -> 815 ;
816 [label="HANDSET_PRICE <= 409.0\ngini = 0.42\nsamples = 10\nvalue = [3, 7]\nclass = LEAVE", fillcolor="#8ec7f0"] ;
814 -> 816 ;
817 [label="OVER_15MINS_CALLS_PER_MONTH <= 2.0\ngini = 0.5\nsamples = 6\nvalue = [3, 3]\nclass = STAY", fillcolor="#ffffff"] ;
816 -> 817 ;
818 [label="HOUSE <= 326401.0\ngini = 0.38\nsamples = 4\nvalue = [3, 1]\nclass = STAY", fillcolor="#eeab7b"] ;
817 -> 818 ;
819 [label="gini = 0.0\nsamples = 1\nvalue = [0, 1]\nclass = LEAVE", fillcolor="#399de5"] ;
818 -> 819 ;
820 [label="gini = 0.0\nsamples = 3\nvalue = [3, 0]\nclass = STAY", fillcolor="#e58139"] ;
818 -> 820 ;
821 [label="gini = 0.0\nsamples = 2\nvalue = [0, 2]\nclass = LEAVE", fillcolor="#399de5"] ;
817 -> 821 ;
822 [label="gini = 0.0\nsamples = 4\nvalue = [0, 4]\nclass = LEAVE", fillcolor="#399de5"] ;
816 -> 822 ;
823 [label="gini = 0.0\nsamples = 1\nvalue = [1, 0]\nclass = STAY", fillcolor="#e58139"] ;
813 -> 823 ;
824 [label="gini = 0.0\nsamples = 2\nvalue = [2, 0]\nclass = STAY", fillcolor="#e58139"] ;
812 -> 824 ;
825 [label="gini = 0.0\nsamples = 14\nvalue = [0, 14]\nclass = LEAVE", fillcolor="#399de5"] ;
811 -> 825 ;
826 [label="gini = 0.0\nsamples = 1\nvalue = [1, 0]\nclass = STAY", fillcolor="#e58139"] ;
810 -> 826 ;
827 [label="REPORTED_USAGE_LEVEL_high <= 0.5\ngini = 0.49\nsamples = 63\nvalue = [36, 27]\nclass = STAY", fillcolor="#f8e0ce"] ;
791 -> 827 ;
828 [label="OVER_15MINS_CALLS_PER_MONTH <= 8.5\ngini = 0.5\nsamples = 59\nvalue = [32, 27]\nclass = STAY", fillcolor="#fbebe0"] ;
827 -> 828 ;
829 [label="REPORTED_SATISFACTION_sat <= 0.5\ngini = 0.5\nsamples = 56\nvalue = [29, 27]\nclass = STAY", fillcolor="#fdf6f1"] ;
828 -> 829 ;
830 [label="OVERAGE <= 38.0\ngini = 0.5\nsamples = 53\nvalue = [29, 24]\nclass = STAY", fillcolor="#fbe9dd"] ;
829 -> 830 ;
831 [label="INCOME <= 154253.0\ngini = 0.46\nsamples = 33\nvalue = [21, 12]\nclass = STAY", fillcolor="#f4c9aa"] ;
830 -> 831 ;
832 [label="INCOME <= 103375.0\ngini = 0.44\nsamples = 31\nvalue = [21, 10]\nclass = STAY", fillcolor="#f1bd97"] ;
831 -> 832 ;
833 [label="HOUSE <= 508823.5\ngini = 0.38\nsamples = 4\nvalue = [1, 3]\nclass = LEAVE", fillcolor="#7bbeee"] ;
832 -> 833 ;
834 [label="gini = 0.0\nsamples = 3\nvalue = [0, 3]\nclass = LEAVE", fillcolor="#399de5"] ;
833 -> 834 ;
835 [label="gini = 0.0\nsamples = 1\nvalue = [1, 0]\nclass = STAY", fillcolor="#e58139"] ;
833 -> 835 ;
836 [label="HANDSET_PRICE <= 460.5\ngini = 0.38\nsamples = 27\nvalue = [20, 7]\nclass = STAY", fillcolor="#eead7e"] ;
832 -> 836 ;
837 [label="gini = 0.0\nsamples = 8\nvalue = [8, 0]\nclass = STAY", fillcolor="#e58139"] ;
836 -> 837 ;
838 [label="INCOME <= 129049.5\ngini = 0.47\nsamples = 19\nvalue = [12, 7]\nclass = STAY", fillcolor="#f4caac"] ;
836 -> 838 ;
839 [label="HANDSET_PRICE <= 498.0\ngini = 0.36\nsamples = 13\nvalue = [10, 3]\nclass = STAY", fillcolor="#eda774"] ;
838 -> 839 ;
